digraph Tree {
node [shape=box, style="filled, rounded", color="black", fontname=helvetica] ;
edge [fontname=helvetica] ;
0 [label=<X<SUB>3</SUB> &le; 3.5<br/>gini = 0.403<br/>samples = 11995<br/>value = [3358, 8637]>, fillcolor="#86c3ef"] ;
1 [label=<X<SUB>7</SUB> &le; 0.5<br/>gini = 0.301<br/>samples = 6362<br/>value = [1173, 5189]>, fillcolor="#66b3eb"] ;
0 -> 1 [labeldistance=2.5, labelangle=45, headlabel="True"] ;
2 [label=<X<SUB>9</SUB> &le; 0.5<br/>gini = 0.469<br/>samples = 1219<br/>value = [458, 761]>, fillcolor="#b0d8f5"] ;
1 -> 2 ;
3 [label=<X<SUB>4</SUB> &le; 13.5<br/>gini = 0.39<br/>samples = 64<br/>value = [47, 17]>, fillcolor="#eeaf81"] ;
2 -> 3 ;
4 [label=<gini = 0.0<br/>samples = 9<br/>value = [9, 0]>, fillcolor="#e58139"] ;
3 -> 4 ;
5 [label=<X<SUB>370</SUB> &le; 0.5<br/>gini = 0.427<br/>samples = 55<br/>value = [38, 17]>, fillcolor="#f1b992"] ;
3 -> 5 ;
6 [label=<X<SUB>356</SUB> &le; 0.5<br/>gini = 0.406<br/>samples = 53<br/>value = [38, 15]>, fillcolor="#efb387"] ;
5 -> 6 ;
7 [label=<X<SUB>75</SUB> &le; 0.5<br/>gini = 0.44<br/>samples = 46<br/>value = [31, 15]>, fillcolor="#f2be99"] ;
6 -> 7 ;
8 [label=<X<SUB>6</SUB> &le; 32.5<br/>gini = 0.416<br/>samples = 44<br/>value = [31, 13]>, fillcolor="#f0b68c"] ;
7 -> 8 ;
9 [label=<X<SUB>296</SUB> &le; 0.5<br/>gini = 0.381<br/>samples = 39<br/>value = [29, 10]>, fillcolor="#eeac7d"] ;
8 -> 9 ;
10 [label=<X<SUB>302</SUB> &le; 0.5<br/>gini = 0.361<br/>samples = 38<br/>value = [29, 9]>, fillcolor="#eda876"] ;
9 -> 10 ;
11 [label=<X<SUB>164</SUB> &le; 0.5<br/>gini = 0.339<br/>samples = 37<br/>value = [29, 8]>, fillcolor="#eca470"] ;
10 -> 11 ;
12 [label=<X<SUB>353</SUB> &le; 0.5<br/>gini = 0.313<br/>samples = 36<br/>value = [29, 7]>, fillcolor="#eb9f69"] ;
11 -> 12 ;
13 [label=<X<SUB>4</SUB> &le; 35.5<br/>gini = 0.284<br/>samples = 35<br/>value = [29, 6]>, fillcolor="#ea9b62"] ;
12 -> 13 ;
14 [label=<X<SUB>5</SUB> &le; 4.5<br/>gini = 0.117<br/>samples = 16<br/>value = [15, 1]>, fillcolor="#e78946"] ;
13 -> 14 ;
15 [label=<gini = 0.0<br/>samples = 13<br/>value = [13, 0]>, fillcolor="#e58139"] ;
14 -> 15 ;
16 [label=<X<SUB>3</SUB> &le; 1.5<br/>gini = 0.444<br/>samples = 3<br/>value = [2, 1]>, fillcolor="#f2c09c"] ;
14 -> 16 ;
17 [label=<gini = 0.0<br/>samples = 2<br/>value = [2, 0]>, fillcolor="#e58139"] ;
16 -> 17 ;
18 [label=<gini = 0.0<br/>samples = 1<br/>value = [0, 1]>, fillcolor="#399de5"] ;
16 -> 18 ;
19 [label=<X<SUB>5</SUB> &le; 6.5<br/>gini = 0.388<br/>samples = 19<br/>value = [14, 5]>, fillcolor="#eeae80"] ;
13 -> 19 ;
20 [label=<X<SUB>4</SUB> &le; 41.5<br/>gini = 0.346<br/>samples = 18<br/>value = [14, 4]>, fillcolor="#eca572"] ;
19 -> 20 ;
21 [label=<X<SUB>146</SUB> &le; 0.5<br/>gini = 0.5<br/>samples = 6<br/>value = [3, 3]>, fillcolor="#ffffff"] ;
20 -> 21 ;
22 [label=<X<SUB>349</SUB> &le; 0.5<br/>gini = 0.48<br/>samples = 5<br/>value = [3, 2]>, fillcolor="#f6d5bd"] ;
21 -> 22 ;
23 [label=<X<SUB>5</SUB> &le; 4.5<br/>gini = 0.444<br/>samples = 3<br/>value = [1, 2]>, fillcolor="#9ccef2"] ;
22 -> 23 ;
24 [label=<gini = 0.0<br/>samples = 2<br/>value = [0, 2]>, fillcolor="#399de5"] ;
23 -> 24 ;
25 [label=<gini = 0.0<br/>samples = 1<br/>value = [1, 0]>, fillcolor="#e58139"] ;
23 -> 25 ;
26 [label=<gini = 0.0<br/>samples = 2<br/>value = [2, 0]>, fillcolor="#e58139"] ;
22 -> 26 ;
27 [label=<gini = 0.0<br/>samples = 1<br/>value = [0, 1]>, fillcolor="#399de5"] ;
21 -> 27 ;
28 [label=<X<SUB>336</SUB> &le; 0.5<br/>gini = 0.153<br/>samples = 12<br/>value = [11, 1]>, fillcolor="#e78c4b"] ;
20 -> 28 ;
29 [label=<gini = 0.0<br/>samples = 10<br/>value = [10, 0]>, fillcolor="#e58139"] ;
28 -> 29 ;
30 [label=<X<SUB>321</SUB> &le; 0.5<br/>gini = 0.5<br/>samples = 2<br/>value = [1, 1]>, fillcolor="#ffffff"] ;
28 -> 30 ;
31 [label=<gini = 0.0<br/>samples = 1<br/>value = [1, 0]>, fillcolor="#e58139"] ;
30 -> 31 ;
32 [label=<gini = 0.0<br/>samples = 1<br/>value = [0, 1]>, fillcolor="#399de5"] ;
30 -> 32 ;
33 [label=<gini = 0.0<br/>samples = 1<br/>value = [0, 1]>, fillcolor="#399de5"] ;
19 -> 33 ;
34 [label=<gini = 0.0<br/>samples = 1<br/>value = [0, 1]>, fillcolor="#399de5"] ;
12 -> 34 ;
35 [label=<gini = 0.0<br/>samples = 1<br/>value = [0, 1]>, fillcolor="#399de5"] ;
11 -> 35 ;
36 [label=<gini = 0.0<br/>samples = 1<br/>value = [0, 1]>, fillcolor="#399de5"] ;
10 -> 36 ;
37 [label=<gini = 0.0<br/>samples = 1<br/>value = [0, 1]>, fillcolor="#399de5"] ;
9 -> 37 ;
38 [label=<X<SUB>334</SUB> &le; 0.5<br/>gini = 0.48<br/>samples = 5<br/>value = [2, 3]>, fillcolor="#bddef6"] ;
8 -> 38 ;
39 [label=<gini = 0.0<br/>samples = 3<br/>value = [0, 3]>, fillcolor="#399de5"] ;
38 -> 39 ;
40 [label=<gini = 0.0<br/>samples = 2<br/>value = [2, 0]>, fillcolor="#e58139"] ;
38 -> 40 ;
41 [label=<gini = 0.0<br/>samples = 2<br/>value = [0, 2]>, fillcolor="#399de5"] ;
7 -> 41 ;
42 [label=<gini = 0.0<br/>samples = 7<br/>value = [7, 0]>, fillcolor="#e58139"] ;
6 -> 42 ;
43 [label=<gini = 0.0<br/>samples = 2<br/>value = [0, 2]>, fillcolor="#399de5"] ;
5 -> 43 ;
44 [label=<X<SUB>185</SUB> &le; 0.5<br/>gini = 0.458<br/>samples = 1155<br/>value = [411, 744]>, fillcolor="#a6d3f3"] ;
2 -> 44 ;
45 [label=<X<SUB>358</SUB> &le; 0.5<br/>gini = 0.413<br/>samples = 666<br/>value = [194, 472]>, fillcolor="#8ac5f0"] ;
44 -> 45 ;
46 [label=<X<SUB>186</SUB> &le; 0.5<br/>gini = 0.486<br/>samples = 120<br/>value = [50, 70]>, fillcolor="#c6e3f8"] ;
45 -> 46 ;
47 [label=<X<SUB>336</SUB> &le; 0.5<br/>gini = 0.389<br/>samples = 34<br/>value = [9, 25]>, fillcolor="#80c0ee"] ;
46 -> 47 ;
48 [label=<X<SUB>369</SUB> &le; 0.5<br/>gini = 0.26<br/>samples = 26<br/>value = [4, 22]>, fillcolor="#5dafea"] ;
47 -> 48 ;
49 [label=<X<SUB>108</SUB> &le; 0.5<br/>gini = 0.211<br/>samples = 25<br/>value = [3, 22]>, fillcolor="#54aae9"] ;
48 -> 49 ;
50 [label=<X<SUB>333</SUB> &le; 0.5<br/>gini = 0.153<br/>samples = 24<br/>value = [2, 22]>, fillcolor="#4ba6e7"] ;
49 -> 50 ;
51 [label=<X<SUB>329</SUB> &le; 0.5<br/>gini = 0.083<br/>samples = 23<br/>value = [1, 22]>, fillcolor="#42a1e6"] ;
50 -> 51 ;
52 [label=<gini = 0.0<br/>samples = 20<br/>value = [0, 20]>, fillcolor="#399de5"] ;
51 -> 52 ;
53 [label=<X<SUB>323</SUB> &le; 0.5<br/>gini = 0.444<br/>samples = 3<br/>value = [1, 2]>, fillcolor="#9ccef2"] ;
51 -> 53 ;
54 [label=<gini = 0.0<br/>samples = 2<br/>value = [0, 2]>, fillcolor="#399de5"] ;
53 -> 54 ;
55 [label=<gini = 0.0<br/>samples = 1<br/>value = [1, 0]>, fillcolor="#e58139"] ;
53 -> 55 ;
56 [label=<gini = 0.0<br/>samples = 1<br/>value = [1, 0]>, fillcolor="#e58139"] ;
50 -> 56 ;
57 [label=<gini = 0.0<br/>samples = 1<br/>value = [1, 0]>, fillcolor="#e58139"] ;
49 -> 57 ;
58 [label=<gini = 0.0<br/>samples = 1<br/>value = [1, 0]>, fillcolor="#e58139"] ;
48 -> 58 ;
59 [label=<X<SUB>354</SUB> &le; 0.5<br/>gini = 0.469<br/>samples = 8<br/>value = [5, 3]>, fillcolor="#f5cdb0"] ;
47 -> 59 ;
60 [label=<X<SUB>365</SUB> &le; 0.5<br/>gini = 0.375<br/>samples = 4<br/>value = [1, 3]>, fillcolor="#7bbeee"] ;
59 -> 60 ;
61 [label=<gini = 0.0<br/>samples = 3<br/>value = [0, 3]>, fillcolor="#399de5"] ;
60 -> 61 ;
62 [label=<gini = 0.0<br/>samples = 1<br/>value = [1, 0]>, fillcolor="#e58139"] ;
60 -> 62 ;
63 [label=<gini = 0.0<br/>samples = 4<br/>value = [4, 0]>, fillcolor="#e58139"] ;
59 -> 63 ;
64 [label=<X<SUB>9</SUB> &le; 1.5<br/>gini = 0.499<br/>samples = 86<br/>value = [41, 45]>, fillcolor="#edf6fd"] ;
46 -> 64 ;
65 [label=<X<SUB>332</SUB> &le; 0.5<br/>gini = 0.454<br/>samples = 23<br/>value = [15, 8]>, fillcolor="#f3c4a3"] ;
64 -> 65 ;
66 [label=<X<SUB>5</SUB> &le; 3.5<br/>gini = 0.408<br/>samples = 21<br/>value = [15, 6]>, fillcolor="#efb388"] ;
65 -> 66 ;
67 [label=<X<SUB>343</SUB> &le; 0.5<br/>gini = 0.48<br/>samples = 15<br/>value = [9, 6]>, fillcolor="#f6d5bd"] ;
66 -> 67 ;
68 [label=<X<SUB>356</SUB> &le; 0.5<br/>gini = 0.426<br/>samples = 13<br/>value = [9, 4]>, fillcolor="#f1b991"] ;
67 -> 68 ;
69 [label=<X<SUB>2</SUB> &le; 0.5<br/>gini = 0.48<br/>samples = 5<br/>value = [2, 3]>, fillcolor="#bddef6"] ;
68 -> 69 ;
70 [label=<X<SUB>352</SUB> &le; 0.5<br/>gini = 0.444<br/>samples = 3<br/>value = [2, 1]>, fillcolor="#f2c09c"] ;
69 -> 70 ;
71 [label=<gini = 0.0<br/>samples = 2<br/>value = [2, 0]>, fillcolor="#e58139"] ;
70 -> 71 ;
72 [label=<gini = 0.0<br/>samples = 1<br/>value = [0, 1]>, fillcolor="#399de5"] ;
70 -> 72 ;
73 [label=<gini = 0.0<br/>samples = 2<br/>value = [0, 2]>, fillcolor="#399de5"] ;
69 -> 73 ;
74 [label=<X<SUB>366</SUB> &le; 0.5<br/>gini = 0.219<br/>samples = 8<br/>value = [7, 1]>, fillcolor="#e99355"] ;
68 -> 74 ;
75 [label=<gini = 0.0<br/>samples = 6<br/>value = [6, 0]>, fillcolor="#e58139"] ;
74 -> 75 ;
76 [label=<X<SUB>2</SUB> &le; 0.5<br/>gini = 0.5<br/>samples = 2<br/>value = [1, 1]>, fillcolor="#ffffff"] ;
74 -> 76 ;
77 [label=<gini = 0.0<br/>samples = 1<br/>value = [1, 0]>, fillcolor="#e58139"] ;
76 -> 77 ;
78 [label=<gini = 0.0<br/>samples = 1<br/>value = [0, 1]>, fillcolor="#399de5"] ;
76 -> 78 ;
79 [label=<gini = 0.0<br/>samples = 2<br/>value = [0, 2]>, fillcolor="#399de5"] ;
67 -> 79 ;
80 [label=<gini = 0.0<br/>samples = 6<br/>value = [6, 0]>, fillcolor="#e58139"] ;
66 -> 80 ;
81 [label=<gini = 0.0<br/>samples = 2<br/>value = [0, 2]>, fillcolor="#399de5"] ;
65 -> 81 ;
82 [label=<X<SUB>6</SUB> &le; 7.5<br/>gini = 0.485<br/>samples = 63<br/>value = [26, 37]>, fillcolor="#c4e2f7"] ;
64 -> 82 ;
83 [label=<X<SUB>340</SUB> &le; 0.5<br/>gini = 0.465<br/>samples = 57<br/>value = [21, 36]>, fillcolor="#acd6f4"] ;
82 -> 83 ;
84 [label=<X<SUB>3</SUB> &le; 2.5<br/>gini = 0.452<br/>samples = 55<br/>value = [19, 36]>, fillcolor="#a2d1f3"] ;
83 -> 84 ;
85 [label=<X<SUB>4</SUB> &le; 45.0<br/>gini = 0.399<br/>samples = 40<br/>value = [11, 29]>, fillcolor="#84c2ef"] ;
84 -> 85 ;
86 [label=<X<SUB>9</SUB> &le; 2.5<br/>gini = 0.476<br/>samples = 23<br/>value = [9, 14]>, fillcolor="#b8dcf6"] ;
85 -> 86 ;
87 [label=<X<SUB>321</SUB> &le; 0.5<br/>gini = 0.444<br/>samples = 6<br/>value = [4, 2]>, fillcolor="#f2c09c"] ;
86 -> 87 ;
88 [label=<gini = 0.0<br/>samples = 3<br/>value = [3, 0]>, fillcolor="#e58139"] ;
87 -> 88 ;
89 [label=<X<SUB>331</SUB> &le; 0.5<br/>gini = 0.444<br/>samples = 3<br/>value = [1, 2]>, fillcolor="#9ccef2"] ;
87 -> 89 ;
90 [label=<gini = 0.0<br/>samples = 2<br/>value = [0, 2]>, fillcolor="#399de5"] ;
89 -> 90 ;
91 [label=<gini = 0.0<br/>samples = 1<br/>value = [1, 0]>, fillcolor="#e58139"] ;
89 -> 91 ;
92 [label=<X<SUB>353</SUB> &le; 0.5<br/>gini = 0.415<br/>samples = 17<br/>value = [5, 12]>, fillcolor="#8bc6f0"] ;
86 -> 92 ;
93 [label=<X<SUB>3</SUB> &le; 1.5<br/>gini = 0.49<br/>samples = 7<br/>value = [4, 3]>, fillcolor="#f8e0ce"] ;
92 -> 93 ;
94 [label=<gini = 0.0<br/>samples = 3<br/>value = [3, 0]>, fillcolor="#e58139"] ;
93 -> 94 ;
95 [label=<X<SUB>360</SUB> &le; 0.5<br/>gini = 0.375<br/>samples = 4<br/>value = [1, 3]>, fillcolor="#7bbeee"] ;
93 -> 95 ;
96 [label=<gini = 0.0<br/>samples = 1<br/>value = [1, 0]>, fillcolor="#e58139"] ;
95 -> 96 ;
97 [label=<gini = 0.0<br/>samples = 3<br/>value = [0, 3]>, fillcolor="#399de5"] ;
95 -> 97 ;
98 [label=<X<SUB>4</SUB> &le; 3.5<br/>gini = 0.18<br/>samples = 10<br/>value = [1, 9]>, fillcolor="#4fa8e8"] ;
92 -> 98 ;
99 [label=<gini = 0.0<br/>samples = 1<br/>value = [1, 0]>, fillcolor="#e58139"] ;
98 -> 99 ;
100 [label=<gini = 0.0<br/>samples = 9<br/>value = [0, 9]>, fillcolor="#399de5"] ;
98 -> 100 ;
101 [label=<X<SUB>333</SUB> &le; 0.5<br/>gini = 0.208<br/>samples = 17<br/>value = [2, 15]>, fillcolor="#53aae8"] ;
85 -> 101 ;
102 [label=<X<SUB>5</SUB> &le; 4.5<br/>gini = 0.117<br/>samples = 16<br/>value = [1, 15]>, fillcolor="#46a4e7"] ;
101 -> 102 ;
103 [label=<gini = 0.0<br/>samples = 13<br/>value = [0, 13]>, fillcolor="#399de5"] ;
102 -> 103 ;
104 [label=<X<SUB>351</SUB> &le; 0.5<br/>gini = 0.444<br/>samples = 3<br/>value = [1, 2]>, fillcolor="#9ccef2"] ;
102 -> 104 ;
105 [label=<gini = 0.0<br/>samples = 2<br/>value = [0, 2]>, fillcolor="#399de5"] ;
104 -> 105 ;
106 [label=<gini = 0.0<br/>samples = 1<br/>value = [1, 0]>, fillcolor="#e58139"] ;
104 -> 106 ;
107 [label=<gini = 0.0<br/>samples = 1<br/>value = [1, 0]>, fillcolor="#e58139"] ;
101 -> 107 ;
108 [label=<X<SUB>351</SUB> &le; 0.5<br/>gini = 0.498<br/>samples = 15<br/>value = [8, 7]>, fillcolor="#fcefe6"] ;
84 -> 108 ;
109 [label=<X<SUB>348</SUB> &le; 0.5<br/>gini = 0.486<br/>samples = 12<br/>value = [5, 7]>, fillcolor="#c6e3f8"] ;
108 -> 109 ;
110 [label=<X<SUB>4</SUB> &le; 69.5<br/>gini = 0.278<br/>samples = 6<br/>value = [1, 5]>, fillcolor="#61b1ea"] ;
109 -> 110 ;
111 [label=<gini = 0.0<br/>samples = 4<br/>value = [0, 4]>, fillcolor="#399de5"] ;
110 -> 111 ;
112 [label=<X<SUB>365</SUB> &le; 0.5<br/>gini = 0.5<br/>samples = 2<br/>value = [1, 1]>, fillcolor="#ffffff"] ;
110 -> 112 ;
113 [label=<gini = 0.0<br/>samples = 1<br/>value = [0, 1]>, fillcolor="#399de5"] ;
112 -> 113 ;
114 [label=<gini = 0.0<br/>samples = 1<br/>value = [1, 0]>, fillcolor="#e58139"] ;
112 -> 114 ;
115 [label=<X<SUB>337</SUB> &le; 0.5<br/>gini = 0.444<br/>samples = 6<br/>value = [4, 2]>, fillcolor="#f2c09c"] ;
109 -> 115 ;
116 [label=<gini = 0.0<br/>samples = 4<br/>value = [4, 0]>, fillcolor="#e58139"] ;
115 -> 116 ;
117 [label=<gini = 0.0<br/>samples = 2<br/>value = [0, 2]>, fillcolor="#399de5"] ;
115 -> 117 ;
118 [label=<gini = 0.0<br/>samples = 3<br/>value = [3, 0]>, fillcolor="#e58139"] ;
108 -> 118 ;
119 [label=<gini = 0.0<br/>samples = 2<br/>value = [2, 0]>, fillcolor="#e58139"] ;
83 -> 119 ;
120 [label=<X<SUB>109</SUB> &le; 0.5<br/>gini = 0.278<br/>samples = 6<br/>value = [5, 1]>, fillcolor="#ea9a61"] ;
82 -> 120 ;
121 [label=<gini = 0.0<br/>samples = 5<br/>value = [5, 0]>, fillcolor="#e58139"] ;
120 -> 121 ;
122 [label=<gini = 0.0<br/>samples = 1<br/>value = [0, 1]>, fillcolor="#399de5"] ;
120 -> 122 ;
123 [label=<X<SUB>6</SUB> &le; 15.0<br/>gini = 0.388<br/>samples = 546<br/>value = [144, 402]>, fillcolor="#80c0ee"] ;
45 -> 123 ;
124 [label=<X<SUB>9</SUB> &le; 5.5<br/>gini = 0.37<br/>samples = 494<br/>value = [121, 373]>, fillcolor="#79bded"] ;
123 -> 124 ;
125 [label=<X<SUB>132</SUB> &le; 0.5<br/>gini = 0.39<br/>samples = 426<br/>value = [113, 313]>, fillcolor="#80c0ee"] ;
124 -> 125 ;
126 [label=<X<SUB>286</SUB> &le; 0.5<br/>gini = 0.387<br/>samples = 424<br/>value = [111, 313]>, fillcolor="#7fc0ee"] ;
125 -> 126 ;
127 [label=<X<SUB>335</SUB> &le; 0.5<br/>gini = 0.383<br/>samples = 422<br/>value = [109, 313]>, fillcolor="#7ebfee"] ;
126 -> 127 ;
128 [label=<X<SUB>4</SUB> &le; 68.5<br/>gini = 0.37<br/>samples = 384<br/>value = [94, 290]>, fillcolor="#79bded"] ;
127 -> 128 ;
129 [label=<X<SUB>147</SUB> &le; 0.5<br/>gini = 0.401<br/>samples = 259<br/>value = [72, 187]>, fillcolor="#85c3ef"] ;
128 -> 129 ;
130 [label=<X<SUB>333</SUB> &le; 0.5<br/>gini = 0.331<br/>samples = 129<br/>value = [27, 102]>, fillcolor="#6db7ec"] ;
129 -> 130 ;
131 [label=<X<SUB>4</SUB> &le; 1.0<br/>gini = 0.295<br/>samples = 117<br/>value = [21, 96]>, fillcolor="#64b2eb"] ;
130 -> 131 ;
132 [label=<gini = 0.0<br/>samples = 1<br/>value = [1, 0]>, fillcolor="#e58139"] ;
131 -> 132 ;
133 [label=<X<SUB>175</SUB> &le; 0.5<br/>gini = 0.285<br/>samples = 116<br/>value = [20, 96]>, fillcolor="#62b1ea"] ;
131 -> 133 ;
134 [label=<X<SUB>59</SUB> &le; 0.5<br/>gini = 0.276<br/>samples = 115<br/>value = [19, 96]>, fillcolor="#60b0ea"] ;
133 -> 134 ;
135 [label=<X<SUB>71</SUB> &le; 0.5<br/>gini = 0.266<br/>samples = 114<br/>value = [18, 96]>, fillcolor="#5eafea"] ;
134 -> 135 ;
136 [label=<X<SUB>322</SUB> &le; 0.5<br/>gini = 0.256<br/>samples = 113<br/>value = [17, 96]>, fillcolor="#5caeea"] ;
135 -> 136 ;
137 [label=<X<SUB>146</SUB> &le; 0.5<br/>gini = 0.327<br/>samples = 68<br/>value = [14, 54]>, fillcolor="#6cb6ec"] ;
136 -> 137 ;
138 [label=<X<SUB>334</SUB> &le; 0.5<br/>gini = 0.184<br/>samples = 39<br/>value = [4, 35]>, fillcolor="#50a8e8"] ;
137 -> 138 ;
139 [label=<X<SUB>340</SUB> &le; 0.5<br/>gini = 0.105<br/>samples = 36<br/>value = [2, 34]>, fillcolor="#45a3e7"] ;
138 -> 139 ;
140 [label=<X<SUB>139</SUB> &le; 0.5<br/>gini = 0.056<br/>samples = 35<br/>value = [1, 34]>, fillcolor="#3fa0e6"] ;
139 -> 140 ;
141 [label=<gini = 0.0<br/>samples = 33<br/>value = [0, 33]>, fillcolor="#399de5"] ;
140 -> 141 ;
142 [label=<X<SUB>5</SUB> &le; 2.0<br/>gini = 0.5<br/>samples = 2<br/>value = [1, 1]>, fillcolor="#ffffff"] ;
140 -> 142 ;
143 [label=<gini = 0.0<br/>samples = 1<br/>value = [0, 1]>, fillcolor="#399de5"] ;
142 -> 143 ;
144 [label=<gini = 0.0<br/>samples = 1<br/>value = [1, 0]>, fillcolor="#e58139"] ;
142 -> 144 ;
145 [label=<gini = 0.0<br/>samples = 1<br/>value = [1, 0]>, fillcolor="#e58139"] ;
139 -> 145 ;
146 [label=<X<SUB>341</SUB> &le; 0.5<br/>gini = 0.444<br/>samples = 3<br/>value = [2, 1]>, fillcolor="#f2c09c"] ;
138 -> 146 ;
147 [label=<gini = 0.0<br/>samples = 2<br/>value = [2, 0]>, fillcolor="#e58139"] ;
146 -> 147 ;
148 [label=<gini = 0.0<br/>samples = 1<br/>value = [0, 1]>, fillcolor="#399de5"] ;
146 -> 148 ;
149 [label=<X<SUB>365</SUB> &le; 0.5<br/>gini = 0.452<br/>samples = 29<br/>value = [10, 19]>, fillcolor="#a1d1f3"] ;
137 -> 149 ;
150 [label=<X<SUB>288</SUB> &le; 0.5<br/>gini = 0.153<br/>samples = 12<br/>value = [1, 11]>, fillcolor="#4ba6e7"] ;
149 -> 150 ;
151 [label=<gini = 0.0<br/>samples = 10<br/>value = [0, 10]>, fillcolor="#399de5"] ;
150 -> 151 ;
152 [label=<X<SUB>5</SUB> &le; 3.0<br/>gini = 0.5<br/>samples = 2<br/>value = [1, 1]>, fillcolor="#ffffff"] ;
150 -> 152 ;
153 [label=<gini = 0.0<br/>samples = 1<br/>value = [0, 1]>, fillcolor="#399de5"] ;
152 -> 153 ;
154 [label=<gini = 0.0<br/>samples = 1<br/>value = [1, 0]>, fillcolor="#e58139"] ;
152 -> 154 ;
155 [label=<X<SUB>332</SUB> &le; 0.5<br/>gini = 0.498<br/>samples = 17<br/>value = [9, 8]>, fillcolor="#fcf1e9"] ;
149 -> 155 ;
156 [label=<X<SUB>344</SUB> &le; 0.5<br/>gini = 0.459<br/>samples = 14<br/>value = [9, 5]>, fillcolor="#f3c7a7"] ;
155 -> 156 ;
157 [label=<X<SUB>9</SUB> &le; 4.5<br/>gini = 0.219<br/>samples = 8<br/>value = [7, 1]>, fillcolor="#e99355"] ;
156 -> 157 ;
158 [label=<gini = 0.0<br/>samples = 7<br/>value = [7, 0]>, fillcolor="#e58139"] ;
157 -> 158 ;
159 [label=<gini = 0.0<br/>samples = 1<br/>value = [0, 1]>, fillcolor="#399de5"] ;
157 -> 159 ;
160 [label=<X<SUB>2</SUB> &le; 0.5<br/>gini = 0.444<br/>samples = 6<br/>value = [2, 4]>, fillcolor="#9ccef2"] ;
156 -> 160 ;
161 [label=<gini = 0.0<br/>samples = 3<br/>value = [0, 3]>, fillcolor="#399de5"] ;
160 -> 161 ;
162 [label=<X<SUB>355</SUB> &le; 0.5<br/>gini = 0.444<br/>samples = 3<br/>value = [2, 1]>, fillcolor="#f2c09c"] ;
160 -> 162 ;
163 [label=<gini = 0.0<br/>samples = 1<br/>value = [0, 1]>, fillcolor="#399de5"] ;
162 -> 163 ;
164 [label=<gini = 0.0<br/>samples = 2<br/>value = [2, 0]>, fillcolor="#e58139"] ;
162 -> 164 ;
165 [label=<gini = 0.0<br/>samples = 3<br/>value = [0, 3]>, fillcolor="#399de5"] ;
155 -> 165 ;
166 [label=<X<SUB>184</SUB> &le; 0.5<br/>gini = 0.124<br/>samples = 45<br/>value = [3, 42]>, fillcolor="#47a4e7"] ;
136 -> 166 ;
167 [label=<X<SUB>177</SUB> &le; 0.5<br/>gini = 0.087<br/>samples = 44<br/>value = [2, 42]>, fillcolor="#42a2e6"] ;
166 -> 167 ;
168 [label=<gini = 0.0<br/>samples = 39<br/>value = [0, 39]>, fillcolor="#399de5"] ;
167 -> 168 ;
169 [label=<X<SUB>4</SUB> &le; 33.0<br/>gini = 0.48<br/>samples = 5<br/>value = [2, 3]>, fillcolor="#bddef6"] ;
167 -> 169 ;
170 [label=<gini = 0.0<br/>samples = 3<br/>value = [0, 3]>, fillcolor="#399de5"] ;
169 -> 170 ;
171 [label=<gini = 0.0<br/>samples = 2<br/>value = [2, 0]>, fillcolor="#e58139"] ;
169 -> 171 ;
172 [label=<gini = 0.0<br/>samples = 1<br/>value = [1, 0]>, fillcolor="#e58139"] ;
166 -> 172 ;
173 [label=<gini = 0.0<br/>samples = 1<br/>value = [1, 0]>, fillcolor="#e58139"] ;
135 -> 173 ;
174 [label=<gini = 0.0<br/>samples = 1<br/>value = [1, 0]>, fillcolor="#e58139"] ;
134 -> 174 ;
175 [label=<gini = 0.0<br/>samples = 1<br/>value = [1, 0]>, fillcolor="#e58139"] ;
133 -> 175 ;
176 [label=<X<SUB>344</SUB> &le; 0.5<br/>gini = 0.5<br/>samples = 12<br/>value = [6, 6]>, fillcolor="#ffffff"] ;
130 -> 176 ;
177 [label=<X<SUB>338</SUB> &le; 0.5<br/>gini = 0.278<br/>samples = 6<br/>value = [1, 5]>, fillcolor="#61b1ea"] ;
176 -> 177 ;
178 [label=<gini = 0.0<br/>samples = 5<br/>value = [0, 5]>, fillcolor="#399de5"] ;
177 -> 178 ;
179 [label=<gini = 0.0<br/>samples = 1<br/>value = [1, 0]>, fillcolor="#e58139"] ;
177 -> 179 ;
180 [label=<X<SUB>271</SUB> &le; 0.5<br/>gini = 0.278<br/>samples = 6<br/>value = [5, 1]>, fillcolor="#ea9a61"] ;
176 -> 180 ;
181 [label=<gini = 0.0<br/>samples = 5<br/>value = [5, 0]>, fillcolor="#e58139"] ;
180 -> 181 ;
182 [label=<gini = 0.0<br/>samples = 1<br/>value = [0, 1]>, fillcolor="#399de5"] ;
180 -> 182 ;
183 [label=<X<SUB>186</SUB> &le; 0.5<br/>gini = 0.453<br/>samples = 130<br/>value = [45, 85]>, fillcolor="#a2d1f3"] ;
129 -> 183 ;
184 [label=<X<SUB>287</SUB> &le; 0.5<br/>gini = 0.219<br/>samples = 8<br/>value = [7, 1]>, fillcolor="#e99355"] ;
183 -> 184 ;
185 [label=<gini = 0.0<br/>samples = 7<br/>value = [7, 0]>, fillcolor="#e58139"] ;
184 -> 185 ;
186 [label=<gini = 0.0<br/>samples = 1<br/>value = [0, 1]>, fillcolor="#399de5"] ;
184 -> 186 ;
187 [label=<X<SUB>326</SUB> &le; 0.5<br/>gini = 0.429<br/>samples = 122<br/>value = [38, 84]>, fillcolor="#93c9f1"] ;
183 -> 187 ;
188 [label=<X<SUB>331</SUB> &le; 0.5<br/>gini = 0.407<br/>samples = 116<br/>value = [33, 83]>, fillcolor="#88c4ef"] ;
187 -> 188 ;
189 [label=<X<SUB>5</SUB> &le; 4.5<br/>gini = 0.364<br/>samples = 92<br/>value = [22, 70]>, fillcolor="#77bced"] ;
188 -> 189 ;
190 [label=<X<SUB>4</SUB> &le; 66.5<br/>gini = 0.329<br/>samples = 82<br/>value = [17, 65]>, fillcolor="#6db7ec"] ;
189 -> 190 ;
191 [label=<X<SUB>6</SUB> &le; 0.5<br/>gini = 0.308<br/>samples = 79<br/>value = [15, 64]>, fillcolor="#67b4eb"] ;
190 -> 191 ;
192 [label=<X<SUB>369</SUB> &le; 0.5<br/>gini = 0.295<br/>samples = 78<br/>value = [14, 64]>, fillcolor="#64b2eb"] ;
191 -> 192 ;
193 [label=<X<SUB>371</SUB> &le; 0.5<br/>gini = 0.281<br/>samples = 77<br/>value = [13, 64]>, fillcolor="#61b1ea"] ;
192 -> 193 ;
194 [label=<X<SUB>355</SUB> &le; 0.5<br/>gini = 0.266<br/>samples = 76<br/>value = [12, 64]>, fillcolor="#5eafea"] ;
193 -> 194 ;
195 [label=<X<SUB>332</SUB> &le; 0.5<br/>gini = 0.069<br/>samples = 28<br/>value = [1, 27]>, fillcolor="#40a1e6"] ;
194 -> 195 ;
196 [label=<gini = 0.0<br/>samples = 23<br/>value = [0, 23]>, fillcolor="#399de5"] ;
195 -> 196 ;
197 [label=<X<SUB>4</SUB> &le; 16.0<br/>gini = 0.32<br/>samples = 5<br/>value = [1, 4]>, fillcolor="#6ab6ec"] ;
195 -> 197 ;
198 [label=<gini = 0.0<br/>samples = 1<br/>value = [1, 0]>, fillcolor="#e58139"] ;
197 -> 198 ;
199 [label=<gini = 0.0<br/>samples = 4<br/>value = [0, 4]>, fillcolor="#399de5"] ;
197 -> 199 ;
200 [label=<X<SUB>9</SUB> &le; 4.5<br/>gini = 0.353<br/>samples = 48<br/>value = [11, 37]>, fillcolor="#74baed"] ;
194 -> 200 ;
201 [label=<X<SUB>341</SUB> &le; 0.5<br/>gini = 0.303<br/>samples = 43<br/>value = [8, 35]>, fillcolor="#66b3eb"] ;
200 -> 201 ;
202 [label=<X<SUB>2</SUB> &le; 0.5<br/>gini = 0.278<br/>samples = 42<br/>value = [7, 35]>, fillcolor="#61b1ea"] ;
201 -> 202 ;
203 [label=<gini = 0.0<br/>samples = 13<br/>value = [0, 13]>, fillcolor="#399de5"] ;
202 -> 203 ;
204 [label=<X<SUB>4</SUB> &le; 29.0<br/>gini = 0.366<br/>samples = 29<br/>value = [7, 22]>, fillcolor="#78bced"] ;
202 -> 204 ;
205 [label=<X<SUB>370</SUB> &le; 0.5<br/>gini = 0.142<br/>samples = 13<br/>value = [1, 12]>, fillcolor="#49a5e7"] ;
204 -> 205 ;
206 [label=<gini = 0.0<br/>samples = 12<br/>value = [0, 12]>, fillcolor="#399de5"] ;
205 -> 206 ;
207 [label=<gini = 0.0<br/>samples = 1<br/>value = [1, 0]>, fillcolor="#e58139"] ;
205 -> 207 ;
208 [label=<X<SUB>370</SUB> &le; 0.5<br/>gini = 0.469<br/>samples = 16<br/>value = [6, 10]>, fillcolor="#b0d8f5"] ;
204 -> 208 ;
209 [label=<X<SUB>334</SUB> &le; 0.5<br/>gini = 0.497<br/>samples = 13<br/>value = [6, 7]>, fillcolor="#e3f1fb"] ;
208 -> 209 ;
210 [label=<X<SUB>4</SUB> &le; 31.5<br/>gini = 0.463<br/>samples = 11<br/>value = [4, 7]>, fillcolor="#aad5f4"] ;
209 -> 210 ;
211 [label=<gini = 0.0<br/>samples = 1<br/>value = [1, 0]>, fillcolor="#e58139"] ;
210 -> 211 ;
212 [label=<X<SUB>5</SUB> &le; 3.0<br/>gini = 0.42<br/>samples = 10<br/>value = [3, 7]>, fillcolor="#8ec7f0"] ;
210 -> 212 ;
213 [label=<X<SUB>345</SUB> &le; 0.5<br/>gini = 0.278<br/>samples = 6<br/>value = [1, 5]>, fillcolor="#61b1ea"] ;
212 -> 213 ;
214 [label=<gini = 0.0<br/>samples = 5<br/>value = [0, 5]>, fillcolor="#399de5"] ;
213 -> 214 ;
215 [label=<gini = 0.0<br/>samples = 1<br/>value = [1, 0]>, fillcolor="#e58139"] ;
213 -> 215 ;
216 [label=<X<SUB>4</SUB> &le; 36.0<br/>gini = 0.5<br/>samples = 4<br/>value = [2, 2]>, fillcolor="#ffffff"] ;
212 -> 216 ;
217 [label=<gini = 0.0<br/>samples = 2<br/>value = [0, 2]>, fillcolor="#399de5"] ;
216 -> 217 ;
218 [label=<gini = 0.0<br/>samples = 2<br/>value = [2, 0]>, fillcolor="#e58139"] ;
216 -> 218 ;
219 [label=<gini = 0.0<br/>samples = 2<br/>value = [2, 0]>, fillcolor="#e58139"] ;
209 -> 219 ;
220 [label=<gini = 0.0<br/>samples = 3<br/>value = [0, 3]>, fillcolor="#399de5"] ;
208 -> 220 ;
221 [label=<gini = 0.0<br/>samples = 1<br/>value = [1, 0]>, fillcolor="#e58139"] ;
201 -> 221 ;
222 [label=<X<SUB>3</SUB> &le; 1.5<br/>gini = 0.48<br/>samples = 5<br/>value = [3, 2]>, fillcolor="#f6d5bd"] ;
200 -> 222 ;
223 [label=<X<SUB>5</SUB> &le; 3.0<br/>gini = 0.444<br/>samples = 3<br/>value = [1, 2]>, fillcolor="#9ccef2"] ;
222 -> 223 ;
224 [label=<gini = 0.0<br/>samples = 2<br/>value = [0, 2]>, fillcolor="#399de5"] ;
223 -> 224 ;
225 [label=<gini = 0.0<br/>samples = 1<br/>value = [1, 0]>, fillcolor="#e58139"] ;
223 -> 225 ;
226 [label=<gini = 0.0<br/>samples = 2<br/>value = [2, 0]>, fillcolor="#e58139"] ;
222 -> 226 ;
227 [label=<gini = 0.0<br/>samples = 1<br/>value = [1, 0]>, fillcolor="#e58139"] ;
193 -> 227 ;
228 [label=<gini = 0.0<br/>samples = 1<br/>value = [1, 0]>, fillcolor="#e58139"] ;
192 -> 228 ;
229 [label=<gini = 0.0<br/>samples = 1<br/>value = [1, 0]>, fillcolor="#e58139"] ;
191 -> 229 ;
230 [label=<X<SUB>322</SUB> &le; 0.5<br/>gini = 0.444<br/>samples = 3<br/>value = [2, 1]>, fillcolor="#f2c09c"] ;
190 -> 230 ;
231 [label=<gini = 0.0<br/>samples = 1<br/>value = [0, 1]>, fillcolor="#399de5"] ;
230 -> 231 ;
232 [label=<gini = 0.0<br/>samples = 2<br/>value = [2, 0]>, fillcolor="#e58139"] ;
230 -> 232 ;
233 [label=<X<SUB>3</SUB> &le; 1.5<br/>gini = 0.5<br/>samples = 10<br/>value = [5, 5]>, fillcolor="#ffffff"] ;
189 -> 233 ;
234 [label=<X<SUB>354</SUB> &le; 0.5<br/>gini = 0.278<br/>samples = 6<br/>value = [1, 5]>, fillcolor="#61b1ea"] ;
233 -> 234 ;
235 [label=<gini = 0.0<br/>samples = 5<br/>value = [0, 5]>, fillcolor="#399de5"] ;
234 -> 235 ;
236 [label=<gini = 0.0<br/>samples = 1<br/>value = [1, 0]>, fillcolor="#e58139"] ;
234 -> 236 ;
237 [label=<gini = 0.0<br/>samples = 4<br/>value = [4, 0]>, fillcolor="#e58139"] ;
233 -> 237 ;
238 [label=<X<SUB>353</SUB> &le; 0.5<br/>gini = 0.497<br/>samples = 24<br/>value = [11, 13]>, fillcolor="#e1f0fb"] ;
188 -> 238 ;
239 [label=<X<SUB>2</SUB> &le; 0.5<br/>gini = 0.499<br/>samples = 21<br/>value = [11, 10]>, fillcolor="#fdf4ed"] ;
238 -> 239 ;
240 [label=<X<SUB>355</SUB> &le; 0.5<br/>gini = 0.278<br/>samples = 6<br/>value = [5, 1]>, fillcolor="#ea9a61"] ;
239 -> 240 ;
241 [label=<gini = 0.0<br/>samples = 1<br/>value = [0, 1]>, fillcolor="#399de5"] ;
240 -> 241 ;
242 [label=<gini = 0.0<br/>samples = 5<br/>value = [5, 0]>, fillcolor="#e58139"] ;
240 -> 242 ;
243 [label=<X<SUB>9</SUB> &le; 4.5<br/>gini = 0.48<br/>samples = 15<br/>value = [6, 9]>, fillcolor="#bddef6"] ;
239 -> 243 ;
244 [label=<X<SUB>354</SUB> &le; 0.5<br/>gini = 0.426<br/>samples = 13<br/>value = [4, 9]>, fillcolor="#91c9f1"] ;
243 -> 244 ;
245 [label=<X<SUB>367</SUB> &le; 0.5<br/>gini = 0.198<br/>samples = 9<br/>value = [1, 8]>, fillcolor="#52a9e8"] ;
244 -> 245 ;
246 [label=<gini = 0.0<br/>samples = 8<br/>value = [0, 8]>, fillcolor="#399de5"] ;
245 -> 246 ;
247 [label=<gini = 0.0<br/>samples = 1<br/>value = [1, 0]>, fillcolor="#e58139"] ;
245 -> 247 ;
248 [label=<X<SUB>371</SUB> &le; 0.5<br/>gini = 0.375<br/>samples = 4<br/>value = [3, 1]>, fillcolor="#eeab7b"] ;
244 -> 248 ;
249 [label=<gini = 0.0<br/>samples = 3<br/>value = [3, 0]>, fillcolor="#e58139"] ;
248 -> 249 ;
250 [label=<gini = 0.0<br/>samples = 1<br/>value = [0, 1]>, fillcolor="#399de5"] ;
248 -> 250 ;
251 [label=<gini = 0.0<br/>samples = 2<br/>value = [2, 0]>, fillcolor="#e58139"] ;
243 -> 251 ;
252 [label=<gini = 0.0<br/>samples = 3<br/>value = [0, 3]>, fillcolor="#399de5"] ;
238 -> 252 ;
253 [label=<X<SUB>354</SUB> &le; 0.5<br/>gini = 0.278<br/>samples = 6<br/>value = [5, 1]>, fillcolor="#ea9a61"] ;
187 -> 253 ;
254 [label=<gini = 0.0<br/>samples = 5<br/>value = [5, 0]>, fillcolor="#e58139"] ;
253 -> 254 ;
255 [label=<gini = 0.0<br/>samples = 1<br/>value = [0, 1]>, fillcolor="#399de5"] ;
253 -> 255 ;
256 [label=<X<SUB>367</SUB> &le; 0.5<br/>gini = 0.29<br/>samples = 125<br/>value = [22, 103]>, fillcolor="#63b2eb"] ;
128 -> 256 ;
257 [label=<X<SUB>361</SUB> &le; 0.5<br/>gini = 0.272<br/>samples = 123<br/>value = [20, 103]>, fillcolor="#5fb0ea"] ;
256 -> 257 ;
258 [label=<X<SUB>134</SUB> &le; 0.5<br/>gini = 0.238<br/>samples = 116<br/>value = [16, 100]>, fillcolor="#59ade9"] ;
257 -> 258 ;
259 [label=<X<SUB>163</SUB> &le; 0.5<br/>gini = 0.227<br/>samples = 115<br/>value = [15, 100]>, fillcolor="#57ace9"] ;
258 -> 259 ;
260 [label=<X<SUB>371</SUB> &le; 0.5<br/>gini = 0.215<br/>samples = 114<br/>value = [14, 100]>, fillcolor="#55abe9"] ;
259 -> 260 ;
261 [label=<X<SUB>370</SUB> &le; 0.5<br/>gini = 0.204<br/>samples = 113<br/>value = [13, 100]>, fillcolor="#53aae8"] ;
260 -> 261 ;
262 [label=<X<SUB>332</SUB> &le; 0.5<br/>gini = 0.191<br/>samples = 112<br/>value = [12, 100]>, fillcolor="#51a9e8"] ;
261 -> 262 ;
263 [label=<X<SUB>343</SUB> &le; 0.5<br/>gini = 0.139<br/>samples = 93<br/>value = [7, 86]>, fillcolor="#49a5e7"] ;
262 -> 263 ;
264 [label=<X<SUB>322</SUB> &le; 0.5<br/>gini = 0.061<br/>samples = 63<br/>value = [2, 61]>, fillcolor="#3fa0e6"] ;
263 -> 264 ;
265 [label=<gini = 0.0<br/>samples = 45<br/>value = [0, 45]>, fillcolor="#399de5"] ;
264 -> 265 ;
266 [label=<X<SUB>5</SUB> &le; 1.5<br/>gini = 0.198<br/>samples = 18<br/>value = [2, 16]>, fillcolor="#52a9e8"] ;
264 -> 266 ;
267 [label=<X<SUB>327</SUB> &le; 0.5<br/>gini = 0.111<br/>samples = 17<br/>value = [1, 16]>, fillcolor="#45a3e7"] ;
266 -> 267 ;
268 [label=<gini = 0.0<br/>samples = 15<br/>value = [0, 15]>, fillcolor="#399de5"] ;
267 -> 268 ;
269 [label=<X<SUB>349</SUB> &le; 0.5<br/>gini = 0.5<br/>samples = 2<br/>value = [1, 1]>, fillcolor="#ffffff"] ;
267 -> 269 ;
270 [label=<gini = 0.0<br/>samples = 1<br/>value = [0, 1]>, fillcolor="#399de5"] ;
269 -> 270 ;
271 [label=<gini = 0.0<br/>samples = 1<br/>value = [1, 0]>, fillcolor="#e58139"] ;
269 -> 271 ;
272 [label=<gini = 0.0<br/>samples = 1<br/>value = [1, 0]>, fillcolor="#e58139"] ;
266 -> 272 ;
273 [label=<X<SUB>146</SUB> &le; 0.5<br/>gini = 0.278<br/>samples = 30<br/>value = [5, 25]>, fillcolor="#61b1ea"] ;
263 -> 273 ;
274 [label=<X<SUB>4</SUB> &le; 189.0<br/>gini = 0.238<br/>samples = 29<br/>value = [4, 25]>, fillcolor="#59ade9"] ;
273 -> 274 ;
275 [label=<X<SUB>375</SUB> &le; 0.5<br/>gini = 0.191<br/>samples = 28<br/>value = [3, 25]>, fillcolor="#51a9e8"] ;
274 -> 275 ;
276 [label=<gini = 0.0<br/>samples = 18<br/>value = [0, 18]>, fillcolor="#399de5"] ;
275 -> 276 ;
277 [label=<X<SUB>3</SUB> &le; 1.5<br/>gini = 0.42<br/>samples = 10<br/>value = [3, 7]>, fillcolor="#8ec7f0"] ;
275 -> 277 ;
278 [label=<gini = 0.0<br/>samples = 4<br/>value = [0, 4]>, fillcolor="#399de5"] ;
277 -> 278 ;
279 [label=<X<SUB>345</SUB> &le; 0.5<br/>gini = 0.5<br/>samples = 6<br/>value = [3, 3]>, fillcolor="#ffffff"] ;
277 -> 279 ;
280 [label=<X<SUB>288</SUB> &le; 0.5<br/>gini = 0.375<br/>samples = 4<br/>value = [3, 1]>, fillcolor="#eeab7b"] ;
279 -> 280 ;
281 [label=<gini = 0.0<br/>samples = 3<br/>value = [3, 0]>, fillcolor="#e58139"] ;
280 -> 281 ;
282 [label=<gini = 0.0<br/>samples = 1<br/>value = [0, 1]>, fillcolor="#399de5"] ;
280 -> 282 ;
283 [label=<gini = 0.0<br/>samples = 2<br/>value = [0, 2]>, fillcolor="#399de5"] ;
279 -> 283 ;
284 [label=<gini = 0.0<br/>samples = 1<br/>value = [1, 0]>, fillcolor="#e58139"] ;
274 -> 284 ;
285 [label=<gini = 0.0<br/>samples = 1<br/>value = [1, 0]>, fillcolor="#e58139"] ;
273 -> 285 ;
286 [label=<X<SUB>5</SUB> &le; 3.5<br/>gini = 0.388<br/>samples = 19<br/>value = [5, 14]>, fillcolor="#80c0ee"] ;
262 -> 286 ;
287 [label=<X<SUB>146</SUB> &le; 0.5<br/>gini = 0.153<br/>samples = 12<br/>value = [1, 11]>, fillcolor="#4ba6e7"] ;
286 -> 287 ;
288 [label=<gini = 0.0<br/>samples = 11<br/>value = [0, 11]>, fillcolor="#399de5"] ;
287 -> 288 ;
289 [label=<gini = 0.0<br/>samples = 1<br/>value = [1, 0]>, fillcolor="#e58139"] ;
287 -> 289 ;
290 [label=<X<SUB>4</SUB> &le; 80.0<br/>gini = 0.49<br/>samples = 7<br/>value = [4, 3]>, fillcolor="#f8e0ce"] ;
286 -> 290 ;
291 [label=<gini = 0.0<br/>samples = 1<br/>value = [0, 1]>, fillcolor="#399de5"] ;
290 -> 291 ;
292 [label=<X<SUB>349</SUB> &le; 0.5<br/>gini = 0.444<br/>samples = 6<br/>value = [4, 2]>, fillcolor="#f2c09c"] ;
290 -> 292 ;
293 [label=<X<SUB>354</SUB> &le; 0.5<br/>gini = 0.32<br/>samples = 5<br/>value = [4, 1]>, fillcolor="#eca06a"] ;
292 -> 293 ;
294 [label=<gini = 0.0<br/>samples = 4<br/>value = [4, 0]>, fillcolor="#e58139"] ;
293 -> 294 ;
295 [label=<gini = 0.0<br/>samples = 1<br/>value = [0, 1]>, fillcolor="#399de5"] ;
293 -> 295 ;
296 [label=<gini = 0.0<br/>samples = 1<br/>value = [0, 1]>, fillcolor="#399de5"] ;
292 -> 296 ;
297 [label=<gini = 0.0<br/>samples = 1<br/>value = [1, 0]>, fillcolor="#e58139"] ;
261 -> 297 ;
298 [label=<gini = 0.0<br/>samples = 1<br/>value = [1, 0]>, fillcolor="#e58139"] ;
260 -> 298 ;
299 [label=<gini = 0.0<br/>samples = 1<br/>value = [1, 0]>, fillcolor="#e58139"] ;
259 -> 299 ;
300 [label=<gini = 0.0<br/>samples = 1<br/>value = [1, 0]>, fillcolor="#e58139"] ;
258 -> 300 ;
301 [label=<X<SUB>337</SUB> &le; 0.5<br/>gini = 0.49<br/>samples = 7<br/>value = [4, 3]>, fillcolor="#f8e0ce"] ;
257 -> 301 ;
302 [label=<X<SUB>9</SUB> &le; 3.5<br/>gini = 0.375<br/>samples = 4<br/>value = [1, 3]>, fillcolor="#7bbeee"] ;
301 -> 302 ;
303 [label=<gini = 0.0<br/>samples = 3<br/>value = [0, 3]>, fillcolor="#399de5"] ;
302 -> 303 ;
304 [label=<gini = 0.0<br/>samples = 1<br/>value = [1, 0]>, fillcolor="#e58139"] ;
302 -> 304 ;
305 [label=<gini = 0.0<br/>samples = 3<br/>value = [3, 0]>, fillcolor="#e58139"] ;
301 -> 305 ;
306 [label=<gini = 0.0<br/>samples = 2<br/>value = [2, 0]>, fillcolor="#e58139"] ;
256 -> 306 ;
307 [label=<X<SUB>9</SUB> &le; 4.5<br/>gini = 0.478<br/>samples = 38<br/>value = [15, 23]>, fillcolor="#baddf6"] ;
127 -> 307 ;
308 [label=<X<SUB>3</SUB> &le; 2.5<br/>gini = 0.42<br/>samples = 30<br/>value = [9, 21]>, fillcolor="#8ec7f0"] ;
307 -> 308 ;
309 [label=<X<SUB>4</SUB> &le; 149.5<br/>gini = 0.308<br/>samples = 21<br/>value = [4, 17]>, fillcolor="#68b4eb"] ;
308 -> 309 ;
310 [label=<X<SUB>327</SUB> &le; 0.5<br/>gini = 0.198<br/>samples = 18<br/>value = [2, 16]>, fillcolor="#52a9e8"] ;
309 -> 310 ;
311 [label=<X<SUB>146</SUB> &le; 0.5<br/>gini = 0.117<br/>samples = 16<br/>value = [1, 15]>, fillcolor="#46a4e7"] ;
310 -> 311 ;
312 [label=<gini = 0.0<br/>samples = 13<br/>value = [0, 13]>, fillcolor="#399de5"] ;
311 -> 312 ;
313 [label=<X<SUB>9</SUB> &le; 2.5<br/>gini = 0.444<br/>samples = 3<br/>value = [1, 2]>, fillcolor="#9ccef2"] ;
311 -> 313 ;
314 [label=<gini = 0.0<br/>samples = 1<br/>value = [1, 0]>, fillcolor="#e58139"] ;
313 -> 314 ;
315 [label=<gini = 0.0<br/>samples = 2<br/>value = [0, 2]>, fillcolor="#399de5"] ;
313 -> 315 ;
316 [label=<X<SUB>352</SUB> &le; 0.5<br/>gini = 0.5<br/>samples = 2<br/>value = [1, 1]>, fillcolor="#ffffff"] ;
310 -> 316 ;
317 [label=<gini = 0.0<br/>samples = 1<br/>value = [1, 0]>, fillcolor="#e58139"] ;
316 -> 317 ;
318 [label=<gini = 0.0<br/>samples = 1<br/>value = [0, 1]>, fillcolor="#399de5"] ;
316 -> 318 ;
319 [label=<X<SUB>186</SUB> &le; 0.5<br/>gini = 0.444<br/>samples = 3<br/>value = [2, 1]>, fillcolor="#f2c09c"] ;
309 -> 319 ;
320 [label=<gini = 0.0<br/>samples = 2<br/>value = [2, 0]>, fillcolor="#e58139"] ;
319 -> 320 ;
321 [label=<gini = 0.0<br/>samples = 1<br/>value = [0, 1]>, fillcolor="#399de5"] ;
319 -> 321 ;
322 [label=<X<SUB>9</SUB> &le; 3.5<br/>gini = 0.494<br/>samples = 9<br/>value = [5, 4]>, fillcolor="#fae6d7"] ;
308 -> 322 ;
323 [label=<X<SUB>345</SUB> &le; 0.5<br/>gini = 0.278<br/>samples = 6<br/>value = [5, 1]>, fillcolor="#ea9a61"] ;
322 -> 323 ;
324 [label=<X<SUB>321</SUB> &le; 0.5<br/>gini = 0.5<br/>samples = 2<br/>value = [1, 1]>, fillcolor="#ffffff"] ;
323 -> 324 ;
325 [label=<gini = 0.0<br/>samples = 1<br/>value = [1, 0]>, fillcolor="#e58139"] ;
324 -> 325 ;
326 [label=<gini = 0.0<br/>samples = 1<br/>value = [0, 1]>, fillcolor="#399de5"] ;
324 -> 326 ;
327 [label=<gini = 0.0<br/>samples = 4<br/>value = [4, 0]>, fillcolor="#e58139"] ;
323 -> 327 ;
328 [label=<gini = 0.0<br/>samples = 3<br/>value = [0, 3]>, fillcolor="#399de5"] ;
322 -> 328 ;
329 [label=<X<SUB>8</SUB> &le; 2.5<br/>gini = 0.375<br/>samples = 8<br/>value = [6, 2]>, fillcolor="#eeab7b"] ;
307 -> 329 ;
330 [label=<X<SUB>145</SUB> &le; 0.5<br/>gini = 0.245<br/>samples = 7<br/>value = [6, 1]>, fillcolor="#e9965a"] ;
329 -> 330 ;
331 [label=<gini = 0.0<br/>samples = 6<br/>value = [6, 0]>, fillcolor="#e58139"] ;
330 -> 331 ;
332 [label=<gini = 0.0<br/>samples = 1<br/>value = [0, 1]>, fillcolor="#399de5"] ;
330 -> 332 ;
333 [label=<gini = 0.0<br/>samples = 1<br/>value = [0, 1]>, fillcolor="#399de5"] ;
329 -> 333 ;
334 [label=<gini = 0.0<br/>samples = 2<br/>value = [2, 0]>, fillcolor="#e58139"] ;
126 -> 334 ;
335 [label=<gini = 0.0<br/>samples = 2<br/>value = [2, 0]>, fillcolor="#e58139"] ;
125 -> 335 ;
336 [label=<X<SUB>135</SUB> &le; 0.5<br/>gini = 0.208<br/>samples = 68<br/>value = [8, 60]>, fillcolor="#53aae8"] ;
124 -> 336 ;
337 [label=<X<SUB>339</SUB> &le; 0.5<br/>gini = 0.187<br/>samples = 67<br/>value = [7, 60]>, fillcolor="#50a8e8"] ;
336 -> 337 ;
338 [label=<X<SUB>139</SUB> &le; 0.5<br/>gini = 0.165<br/>samples = 66<br/>value = [6, 60]>, fillcolor="#4da7e8"] ;
337 -> 338 ;
339 [label=<X<SUB>367</SUB> &le; 0.5<br/>gini = 0.142<br/>samples = 65<br/>value = [5, 60]>, fillcolor="#49a5e7"] ;
338 -> 339 ;
340 [label=<X<SUB>335</SUB> &le; 0.5<br/>gini = 0.119<br/>samples = 63<br/>value = [4, 59]>, fillcolor="#46a4e7"] ;
339 -> 340 ;
341 [label=<X<SUB>5</SUB> &le; 4.5<br/>gini = 0.069<br/>samples = 56<br/>value = [2, 54]>, fillcolor="#40a1e6"] ;
340 -> 341 ;
342 [label=<gini = 0.0<br/>samples = 48<br/>value = [0, 48]>, fillcolor="#399de5"] ;
341 -> 342 ;
343 [label=<X<SUB>338</SUB> &le; 0.5<br/>gini = 0.375<br/>samples = 8<br/>value = [2, 6]>, fillcolor="#7bbeee"] ;
341 -> 343 ;
344 [label=<gini = 0.0<br/>samples = 6<br/>value = [0, 6]>, fillcolor="#399de5"] ;
343 -> 344 ;
345 [label=<gini = 0.0<br/>samples = 2<br/>value = [2, 0]>, fillcolor="#e58139"] ;
343 -> 345 ;
346 [label=<X<SUB>4</SUB> &le; 50.0<br/>gini = 0.408<br/>samples = 7<br/>value = [2, 5]>, fillcolor="#88c4ef"] ;
340 -> 346 ;
347 [label=<X<SUB>326</SUB> &le; 0.5<br/>gini = 0.444<br/>samples = 3<br/>value = [2, 1]>, fillcolor="#f2c09c"] ;
346 -> 347 ;
348 [label=<gini = 0.0<br/>samples = 2<br/>value = [2, 0]>, fillcolor="#e58139"] ;
347 -> 348 ;
349 [label=<gini = 0.0<br/>samples = 1<br/>value = [0, 1]>, fillcolor="#399de5"] ;
347 -> 349 ;
350 [label=<gini = 0.0<br/>samples = 4<br/>value = [0, 4]>, fillcolor="#399de5"] ;
346 -> 350 ;
351 [label=<X<SUB>186</SUB> &le; 0.5<br/>gini = 0.5<br/>samples = 2<br/>value = [1, 1]>, fillcolor="#ffffff"] ;
339 -> 351 ;
352 [label=<gini = 0.0<br/>samples = 1<br/>value = [0, 1]>, fillcolor="#399de5"] ;
351 -> 352 ;
353 [label=<gini = 0.0<br/>samples = 1<br/>value = [1, 0]>, fillcolor="#e58139"] ;
351 -> 353 ;
354 [label=<gini = 0.0<br/>samples = 1<br/>value = [1, 0]>, fillcolor="#e58139"] ;
338 -> 354 ;
355 [label=<gini = 0.0<br/>samples = 1<br/>value = [1, 0]>, fillcolor="#e58139"] ;
337 -> 355 ;
356 [label=<gini = 0.0<br/>samples = 1<br/>value = [1, 0]>, fillcolor="#e58139"] ;
336 -> 356 ;
357 [label=<X<SUB>6</SUB> &le; 160.0<br/>gini = 0.493<br/>samples = 52<br/>value = [23, 29]>, fillcolor="#d6ebfa"] ;
123 -> 357 ;
358 [label=<X<SUB>4</SUB> &le; 92.5<br/>gini = 0.49<br/>samples = 35<br/>value = [20, 15]>, fillcolor="#f8e0ce"] ;
357 -> 358 ;
359 [label=<X<SUB>346</SUB> &le; 0.5<br/>gini = 0.444<br/>samples = 27<br/>value = [18, 9]>, fillcolor="#f2c09c"] ;
358 -> 359 ;
360 [label=<X<SUB>3</SUB> &le; 1.5<br/>gini = 0.403<br/>samples = 25<br/>value = [18, 7]>, fillcolor="#efb286"] ;
359 -> 360 ;
361 [label=<X<SUB>147</SUB> &le; 0.5<br/>gini = 0.48<br/>samples = 5<br/>value = [2, 3]>, fillcolor="#bddef6"] ;
360 -> 361 ;
362 [label=<gini = 0.0<br/>samples = 2<br/>value = [0, 2]>, fillcolor="#399de5"] ;
361 -> 362 ;
363 [label=<X<SUB>9</SUB> &le; 4.5<br/>gini = 0.444<br/>samples = 3<br/>value = [2, 1]>, fillcolor="#f2c09c"] ;
361 -> 363 ;
364 [label=<gini = 0.0<br/>samples = 2<br/>value = [2, 0]>, fillcolor="#e58139"] ;
363 -> 364 ;
365 [label=<gini = 0.0<br/>samples = 1<br/>value = [0, 1]>, fillcolor="#399de5"] ;
363 -> 365 ;
366 [label=<X<SUB>370</SUB> &le; 0.5<br/>gini = 0.32<br/>samples = 20<br/>value = [16, 4]>, fillcolor="#eca06a"] ;
360 -> 366 ;
367 [label=<X<SUB>302</SUB> &le; 0.5<br/>gini = 0.266<br/>samples = 19<br/>value = [16, 3]>, fillcolor="#ea995e"] ;
366 -> 367 ;
368 [label=<X<SUB>3</SUB> &le; 2.5<br/>gini = 0.198<br/>samples = 18<br/>value = [16, 2]>, fillcolor="#e89152"] ;
367 -> 368 ;
369 [label=<gini = 0.0<br/>samples = 10<br/>value = [10, 0]>, fillcolor="#e58139"] ;
368 -> 369 ;
370 [label=<X<SUB>355</SUB> &le; 0.5<br/>gini = 0.375<br/>samples = 8<br/>value = [6, 2]>, fillcolor="#eeab7b"] ;
368 -> 370 ;
371 [label=<gini = 0.0<br/>samples = 5<br/>value = [5, 0]>, fillcolor="#e58139"] ;
370 -> 371 ;
372 [label=<X<SUB>186</SUB> &le; 0.5<br/>gini = 0.444<br/>samples = 3<br/>value = [1, 2]>, fillcolor="#9ccef2"] ;
370 -> 372 ;
373 [label=<gini = 0.0<br/>samples = 1<br/>value = [1, 0]>, fillcolor="#e58139"] ;
372 -> 373 ;
374 [label=<gini = 0.0<br/>samples = 2<br/>value = [0, 2]>, fillcolor="#399de5"] ;
372 -> 374 ;
375 [label=<gini = 0.0<br/>samples = 1<br/>value = [0, 1]>, fillcolor="#399de5"] ;
367 -> 375 ;
376 [label=<gini = 0.0<br/>samples = 1<br/>value = [0, 1]>, fillcolor="#399de5"] ;
366 -> 376 ;
377 [label=<gini = 0.0<br/>samples = 2<br/>value = [0, 2]>, fillcolor="#399de5"] ;
359 -> 377 ;
378 [label=<X<SUB>157</SUB> &le; 0.5<br/>gini = 0.375<br/>samples = 8<br/>value = [2, 6]>, fillcolor="#7bbeee"] ;
358 -> 378 ;
379 [label=<X<SUB>354</SUB> &le; 0.5<br/>gini = 0.245<br/>samples = 7<br/>value = [1, 6]>, fillcolor="#5aade9"] ;
378 -> 379 ;
380 [label=<gini = 0.0<br/>samples = 1<br/>value = [1, 0]>, fillcolor="#e58139"] ;
379 -> 380 ;
381 [label=<gini = 0.0<br/>samples = 6<br/>value = [0, 6]>, fillcolor="#399de5"] ;
379 -> 381 ;
382 [label=<gini = 0.0<br/>samples = 1<br/>value = [1, 0]>, fillcolor="#e58139"] ;
378 -> 382 ;
383 [label=<X<SUB>186</SUB> &le; 0.5<br/>gini = 0.291<br/>samples = 17<br/>value = [3, 14]>, fillcolor="#63b2eb"] ;
357 -> 383 ;
384 [label=<X<SUB>3</SUB> &le; 2.5<br/>gini = 0.5<br/>samples = 6<br/>value = [3, 3]>, fillcolor="#ffffff"] ;
383 -> 384 ;
385 [label=<X<SUB>5</SUB> &le; 3.0<br/>gini = 0.375<br/>samples = 4<br/>value = [1, 3]>, fillcolor="#7bbeee"] ;
384 -> 385 ;
386 [label=<gini = 0.0<br/>samples = 3<br/>value = [0, 3]>, fillcolor="#399de5"] ;
385 -> 386 ;
387 [label=<gini = 0.0<br/>samples = 1<br/>value = [1, 0]>, fillcolor="#e58139"] ;
385 -> 387 ;
388 [label=<gini = 0.0<br/>samples = 2<br/>value = [2, 0]>, fillcolor="#e58139"] ;
384 -> 388 ;
389 [label=<gini = 0.0<br/>samples = 11<br/>value = [0, 11]>, fillcolor="#399de5"] ;
383 -> 389 ;
390 [label=<X<SUB>9</SUB> &le; 5.5<br/>gini = 0.494<br/>samples = 489<br/>value = [217, 272]>, fillcolor="#d7ebfa"] ;
44 -> 390 ;
391 [label=<X<SUB>5</SUB> &le; 1.5<br/>gini = 0.5<br/>samples = 414<br/>value = [201, 213]>, fillcolor="#f4f9fe"] ;
390 -> 391 ;
392 [label=<X<SUB>353</SUB> &le; 0.5<br/>gini = 0.487<br/>samples = 243<br/>value = [102, 141]>, fillcolor="#c8e4f8"] ;
391 -> 392 ;
393 [label=<X<SUB>345</SUB> &le; 0.5<br/>gini = 0.472<br/>samples = 199<br/>value = [76, 123]>, fillcolor="#b3daf5"] ;
392 -> 393 ;
394 [label=<X<SUB>360</SUB> &le; 0.5<br/>gini = 0.5<br/>samples = 65<br/>value = [33, 32]>, fillcolor="#fefbf9"] ;
393 -> 394 ;
395 [label=<gini = 0.0<br/>samples = 3<br/>value = [3, 0]>, fillcolor="#e58139"] ;
394 -> 395 ;
396 [label=<X<SUB>321</SUB> &le; 0.5<br/>gini = 0.499<br/>samples = 62<br/>value = [30, 32]>, fillcolor="#f3f9fd"] ;
394 -> 396 ;
397 [label=<X<SUB>4</SUB> &le; 53.5<br/>gini = 0.48<br/>samples = 40<br/>value = [16, 24]>, fillcolor="#bddef6"] ;
396 -> 397 ;
398 [label=<X<SUB>320</SUB> &le; 0.5<br/>gini = 0.493<br/>samples = 25<br/>value = [14, 11]>, fillcolor="#f9e4d5"] ;
397 -> 398 ;
399 [label=<X<SUB>3</SUB> &le; 2.5<br/>gini = 0.499<br/>samples = 21<br/>value = [10, 11]>, fillcolor="#edf6fd"] ;
398 -> 399 ;
400 [label=<X<SUB>366</SUB> &le; 0.5<br/>gini = 0.494<br/>samples = 18<br/>value = [10, 8]>, fillcolor="#fae6d7"] ;
399 -> 400 ;
401 [label=<X<SUB>333</SUB> &le; 0.5<br/>gini = 0.5<br/>samples = 16<br/>value = [8, 8]>, fillcolor="#ffffff"] ;
400 -> 401 ;
402 [label=<X<SUB>365</SUB> &le; 0.5<br/>gini = 0.498<br/>samples = 15<br/>value = [7, 8]>, fillcolor="#e6f3fc"] ;
401 -> 402 ;
403 [label=<gini = 0.0<br/>samples = 2<br/>value = [0, 2]>, fillcolor="#399de5"] ;
402 -> 403 ;
404 [label=<X<SUB>328</SUB> &le; 0.5<br/>gini = 0.497<br/>samples = 13<br/>value = [7, 6]>, fillcolor="#fbede3"] ;
402 -> 404 ;
405 [label=<X<SUB>327</SUB> &le; 0.5<br/>gini = 0.486<br/>samples = 12<br/>value = [7, 5]>, fillcolor="#f8dbc6"] ;
404 -> 405 ;
406 [label=<X<SUB>3</SUB> &le; 1.5<br/>gini = 0.463<br/>samples = 11<br/>value = [7, 4]>, fillcolor="#f4c9aa"] ;
405 -> 406 ;
407 [label=<X<SUB>4</SUB> &le; 9.0<br/>gini = 0.48<br/>samples = 5<br/>value = [2, 3]>, fillcolor="#bddef6"] ;
406 -> 407 ;
408 [label=<gini = 0.0<br/>samples = 1<br/>value = [1, 0]>, fillcolor="#e58139"] ;
407 -> 408 ;
409 [label=<X<SUB>331</SUB> &le; 0.5<br/>gini = 0.375<br/>samples = 4<br/>value = [1, 3]>, fillcolor="#7bbeee"] ;
407 -> 409 ;
410 [label=<gini = 0.0<br/>samples = 2<br/>value = [0, 2]>, fillcolor="#399de5"] ;
409 -> 410 ;
411 [label=<X<SUB>9</SUB> &le; 2.5<br/>gini = 0.5<br/>samples = 2<br/>value = [1, 1]>, fillcolor="#ffffff"] ;
409 -> 411 ;
412 [label=<gini = 0.0<br/>samples = 1<br/>value = [1, 0]>, fillcolor="#e58139"] ;
411 -> 412 ;
413 [label=<gini = 0.0<br/>samples = 1<br/>value = [0, 1]>, fillcolor="#399de5"] ;
411 -> 413 ;
414 [label=<X<SUB>4</SUB> &le; 49.0<br/>gini = 0.278<br/>samples = 6<br/>value = [5, 1]>, fillcolor="#ea9a61"] ;
406 -> 414 ;
415 [label=<gini = 0.0<br/>samples = 4<br/>value = [4, 0]>, fillcolor="#e58139"] ;
414 -> 415 ;
416 [label=<X<SUB>352</SUB> &le; 0.5<br/>gini = 0.5<br/>samples = 2<br/>value = [1, 1]>, fillcolor="#ffffff"] ;
414 -> 416 ;
417 [label=<gini = 0.0<br/>samples = 1<br/>value = [1, 0]>, fillcolor="#e58139"] ;
416 -> 417 ;
418 [label=<gini = 0.0<br/>samples = 1<br/>value = [0, 1]>, fillcolor="#399de5"] ;
416 -> 418 ;
419 [label=<gini = 0.0<br/>samples = 1<br/>value = [0, 1]>, fillcolor="#399de5"] ;
405 -> 419 ;
420 [label=<gini = 0.0<br/>samples = 1<br/>value = [0, 1]>, fillcolor="#399de5"] ;
404 -> 420 ;
421 [label=<gini = 0.0<br/>samples = 1<br/>value = [1, 0]>, fillcolor="#e58139"] ;
401 -> 421 ;
422 [label=<gini = 0.0<br/>samples = 2<br/>value = [2, 0]>, fillcolor="#e58139"] ;
400 -> 422 ;
423 [label=<gini = 0.0<br/>samples = 3<br/>value = [0, 3]>, fillcolor="#399de5"] ;
399 -> 423 ;
424 [label=<gini = 0.0<br/>samples = 4<br/>value = [4, 0]>, fillcolor="#e58139"] ;
398 -> 424 ;
425 [label=<X<SUB>349</SUB> &le; 0.5<br/>gini = 0.231<br/>samples = 15<br/>value = [2, 13]>, fillcolor="#57ace9"] ;
397 -> 425 ;
426 [label=<X<SUB>9</SUB> &le; 4.5<br/>gini = 0.133<br/>samples = 14<br/>value = [1, 13]>, fillcolor="#48a5e7"] ;
425 -> 426 ;
427 [label=<gini = 0.0<br/>samples = 11<br/>value = [0, 11]>, fillcolor="#399de5"] ;
426 -> 427 ;
428 [label=<X<SUB>352</SUB> &le; 0.5<br/>gini = 0.444<br/>samples = 3<br/>value = [1, 2]>, fillcolor="#9ccef2"] ;
426 -> 428 ;
429 [label=<gini = 0.0<br/>samples = 2<br/>value = [0, 2]>, fillcolor="#399de5"] ;
428 -> 429 ;
430 [label=<gini = 0.0<br/>samples = 1<br/>value = [1, 0]>, fillcolor="#e58139"] ;
428 -> 430 ;
431 [label=<gini = 0.0<br/>samples = 1<br/>value = [1, 0]>, fillcolor="#e58139"] ;
425 -> 431 ;
432 [label=<X<SUB>367</SUB> &le; 0.5<br/>gini = 0.463<br/>samples = 22<br/>value = [14, 8]>, fillcolor="#f4c9aa"] ;
396 -> 432 ;
433 [label=<X<SUB>4</SUB> &le; 11.5<br/>gini = 0.42<br/>samples = 20<br/>value = [14, 6]>, fillcolor="#f0b78e"] ;
432 -> 433 ;
434 [label=<gini = 0.0<br/>samples = 2<br/>value = [0, 2]>, fillcolor="#399de5"] ;
433 -> 434 ;
435 [label=<X<SUB>336</SUB> &le; 0.5<br/>gini = 0.346<br/>samples = 18<br/>value = [14, 4]>, fillcolor="#eca572"] ;
433 -> 435 ;
436 [label=<X<SUB>365</SUB> &le; 0.5<br/>gini = 0.291<br/>samples = 17<br/>value = [14, 3]>, fillcolor="#eb9c63"] ;
435 -> 436 ;
437 [label=<gini = 0.0<br/>samples = 6<br/>value = [6, 0]>, fillcolor="#e58139"] ;
436 -> 437 ;
438 [label=<X<SUB>337</SUB> &le; 0.5<br/>gini = 0.397<br/>samples = 11<br/>value = [8, 3]>, fillcolor="#efb083"] ;
436 -> 438 ;
439 [label=<X<SUB>357</SUB> &le; 0.5<br/>gini = 0.32<br/>samples = 10<br/>value = [8, 2]>, fillcolor="#eca06a"] ;
438 -> 439 ;
440 [label=<X<SUB>3</SUB> &le; 1.5<br/>gini = 0.198<br/>samples = 9<br/>value = [8, 1]>, fillcolor="#e89152"] ;
439 -> 440 ;
441 [label=<X<SUB>324</SUB> &le; 0.5<br/>gini = 0.5<br/>samples = 2<br/>value = [1, 1]>, fillcolor="#ffffff"] ;
440 -> 441 ;
442 [label=<gini = 0.0<br/>samples = 1<br/>value = [1, 0]>, fillcolor="#e58139"] ;
441 -> 442 ;
443 [label=<gini = 0.0<br/>samples = 1<br/>value = [0, 1]>, fillcolor="#399de5"] ;
441 -> 443 ;
444 [label=<gini = 0.0<br/>samples = 7<br/>value = [7, 0]>, fillcolor="#e58139"] ;
440 -> 444 ;
445 [label=<gini = 0.0<br/>samples = 1<br/>value = [0, 1]>, fillcolor="#399de5"] ;
439 -> 445 ;
446 [label=<gini = 0.0<br/>samples = 1<br/>value = [0, 1]>, fillcolor="#399de5"] ;
438 -> 446 ;
447 [label=<gini = 0.0<br/>samples = 1<br/>value = [0, 1]>, fillcolor="#399de5"] ;
435 -> 447 ;
448 [label=<gini = 0.0<br/>samples = 2<br/>value = [0, 2]>, fillcolor="#399de5"] ;
432 -> 448 ;
449 [label=<X<SUB>3</SUB> &le; 0.5<br/>gini = 0.436<br/>samples = 134<br/>value = [43, 91]>, fillcolor="#97cbf1"] ;
393 -> 449 ;
450 [label=<gini = 0.0<br/>samples = 2<br/>value = [2, 0]>, fillcolor="#e58139"] ;
449 -> 450 ;
451 [label=<X<SUB>4</SUB> &le; 5.5<br/>gini = 0.428<br/>samples = 132<br/>value = [41, 91]>, fillcolor="#92c9f1"] ;
449 -> 451 ;
452 [label=<gini = 0.0<br/>samples = 7<br/>value = [0, 7]>, fillcolor="#399de5"] ;
451 -> 452 ;
453 [label=<X<SUB>348</SUB> &le; 0.5<br/>gini = 0.441<br/>samples = 125<br/>value = [41, 84]>, fillcolor="#9acdf2"] ;
451 -> 453 ;
454 [label=<X<SUB>356</SUB> &le; 0.5<br/>gini = 0.328<br/>samples = 29<br/>value = [6, 23]>, fillcolor="#6db7ec"] ;
453 -> 454 ;
455 [label=<X<SUB>329</SUB> &le; 0.5<br/>gini = 0.252<br/>samples = 27<br/>value = [4, 23]>, fillcolor="#5baeea"] ;
454 -> 455 ;
456 [label=<X<SUB>326</SUB> &le; 0.5<br/>gini = 0.204<br/>samples = 26<br/>value = [3, 23]>, fillcolor="#53aae8"] ;
455 -> 456 ;
457 [label=<X<SUB>332</SUB> &le; 0.5<br/>gini = 0.147<br/>samples = 25<br/>value = [2, 23]>, fillcolor="#4aa6e7"] ;
456 -> 457 ;
458 [label=<gini = 0.0<br/>samples = 18<br/>value = [0, 18]>, fillcolor="#399de5"] ;
457 -> 458 ;
459 [label=<X<SUB>375</SUB> &le; 0.5<br/>gini = 0.408<br/>samples = 7<br/>value = [2, 5]>, fillcolor="#88c4ef"] ;
457 -> 459 ;
460 [label=<gini = 0.0<br/>samples = 5<br/>value = [0, 5]>, fillcolor="#399de5"] ;
459 -> 460 ;
461 [label=<gini = 0.0<br/>samples = 2<br/>value = [2, 0]>, fillcolor="#e58139"] ;
459 -> 461 ;
462 [label=<gini = 0.0<br/>samples = 1<br/>value = [1, 0]>, fillcolor="#e58139"] ;
456 -> 462 ;
463 [label=<gini = 0.0<br/>samples = 1<br/>value = [1, 0]>, fillcolor="#e58139"] ;
455 -> 463 ;
464 [label=<gini = 0.0<br/>samples = 2<br/>value = [2, 0]>, fillcolor="#e58139"] ;
454 -> 464 ;
465 [label=<X<SUB>360</SUB> &le; 0.5<br/>gini = 0.463<br/>samples = 96<br/>value = [35, 61]>, fillcolor="#abd5f4"] ;
453 -> 465 ;
466 [label=<gini = 0.0<br/>samples = 3<br/>value = [3, 0]>, fillcolor="#e58139"] ;
465 -> 466 ;
467 [label=<X<SUB>352</SUB> &le; 0.5<br/>gini = 0.451<br/>samples = 93<br/>value = [32, 61]>, fillcolor="#a1d0f3"] ;
465 -> 467 ;
468 [label=<X<SUB>4</SUB> &le; 13.0<br/>gini = 0.35<br/>samples = 31<br/>value = [7, 24]>, fillcolor="#73baed"] ;
467 -> 468 ;
469 [label=<X<SUB>365</SUB> &le; 0.5<br/>gini = 0.444<br/>samples = 3<br/>value = [2, 1]>, fillcolor="#f2c09c"] ;
468 -> 469 ;
470 [label=<gini = 0.0<br/>samples = 1<br/>value = [0, 1]>, fillcolor="#399de5"] ;
469 -> 470 ;
471 [label=<gini = 0.0<br/>samples = 2<br/>value = [2, 0]>, fillcolor="#e58139"] ;
469 -> 471 ;
472 [label=<X<SUB>370</SUB> &le; 0.5<br/>gini = 0.293<br/>samples = 28<br/>value = [5, 23]>, fillcolor="#64b2eb"] ;
468 -> 472 ;
473 [label=<X<SUB>363</SUB> &le; 0.5<br/>gini = 0.252<br/>samples = 27<br/>value = [4, 23]>, fillcolor="#5baeea"] ;
472 -> 473 ;
474 [label=<X<SUB>9</SUB> &le; 3.5<br/>gini = 0.204<br/>samples = 26<br/>value = [3, 23]>, fillcolor="#53aae8"] ;
473 -> 474 ;
475 [label=<gini = 0.0<br/>samples = 15<br/>value = [0, 15]>, fillcolor="#399de5"] ;
474 -> 475 ;
476 [label=<X<SUB>375</SUB> &le; 0.5<br/>gini = 0.397<br/>samples = 11<br/>value = [3, 8]>, fillcolor="#83c2ef"] ;
474 -> 476 ;
477 [label=<X<SUB>2</SUB> &le; 0.5<br/>gini = 0.32<br/>samples = 10<br/>value = [2, 8]>, fillcolor="#6ab6ec"] ;
476 -> 477 ;
478 [label=<gini = 0.0<br/>samples = 1<br/>value = [1, 0]>, fillcolor="#e58139"] ;
477 -> 478 ;
479 [label=<X<SUB>321</SUB> &le; 0.5<br/>gini = 0.198<br/>samples = 9<br/>value = [1, 8]>, fillcolor="#52a9e8"] ;
477 -> 479 ;
480 [label=<gini = 0.0<br/>samples = 6<br/>value = [0, 6]>, fillcolor="#399de5"] ;
479 -> 480 ;
481 [label=<X<SUB>4</SUB> &le; 44.5<br/>gini = 0.444<br/>samples = 3<br/>value = [1, 2]>, fillcolor="#9ccef2"] ;
479 -> 481 ;
482 [label=<gini = 0.0<br/>samples = 2<br/>value = [0, 2]>, fillcolor="#399de5"] ;
481 -> 482 ;
483 [label=<gini = 0.0<br/>samples = 1<br/>value = [1, 0]>, fillcolor="#e58139"] ;
481 -> 483 ;
484 [label=<gini = 0.0<br/>samples = 1<br/>value = [1, 0]>, fillcolor="#e58139"] ;
476 -> 484 ;
485 [label=<gini = 0.0<br/>samples = 1<br/>value = [1, 0]>, fillcolor="#e58139"] ;
473 -> 485 ;
486 [label=<gini = 0.0<br/>samples = 1<br/>value = [1, 0]>, fillcolor="#e58139"] ;
472 -> 486 ;
487 [label=<X<SUB>9</SUB> &le; 4.5<br/>gini = 0.481<br/>samples = 62<br/>value = [25, 37]>, fillcolor="#bfdff7"] ;
467 -> 487 ;
488 [label=<X<SUB>365</SUB> &le; 0.5<br/>gini = 0.494<br/>samples = 56<br/>value = [25, 31]>, fillcolor="#d9ecfa"] ;
487 -> 488 ;
489 [label=<X<SUB>356</SUB> &le; 0.5<br/>gini = 0.42<br/>samples = 20<br/>value = [6, 14]>, fillcolor="#8ec7f0"] ;
488 -> 489 ;
490 [label=<X<SUB>358</SUB> &le; 0.5<br/>gini = 0.388<br/>samples = 19<br/>value = [5, 14]>, fillcolor="#80c0ee"] ;
489 -> 490 ;
491 [label=<gini = 0.0<br/>samples = 1<br/>value = [1, 0]>, fillcolor="#e58139"] ;
490 -> 491 ;
492 [label=<X<SUB>6</SUB> &le; 125.0<br/>gini = 0.346<br/>samples = 18<br/>value = [4, 14]>, fillcolor="#72b9ec"] ;
490 -> 492 ;
493 [label=<X<SUB>2</SUB> &le; 0.5<br/>gini = 0.291<br/>samples = 17<br/>value = [3, 14]>, fillcolor="#63b2eb"] ;
492 -> 493 ;
494 [label=<X<SUB>9</SUB> &le; 2.0<br/>gini = 0.48<br/>samples = 5<br/>value = [2, 3]>, fillcolor="#bddef6"] ;
493 -> 494 ;
495 [label=<X<SUB>322</SUB> &le; 0.5<br/>gini = 0.444<br/>samples = 3<br/>value = [2, 1]>, fillcolor="#f2c09c"] ;
494 -> 495 ;
496 [label=<gini = 0.0<br/>samples = 1<br/>value = [0, 1]>, fillcolor="#399de5"] ;
495 -> 496 ;
497 [label=<gini = 0.0<br/>samples = 2<br/>value = [2, 0]>, fillcolor="#e58139"] ;
495 -> 497 ;
498 [label=<gini = 0.0<br/>samples = 2<br/>value = [0, 2]>, fillcolor="#399de5"] ;
494 -> 498 ;
499 [label=<X<SUB>337</SUB> &le; 0.5<br/>gini = 0.153<br/>samples = 12<br/>value = [1, 11]>, fillcolor="#4ba6e7"] ;
493 -> 499 ;
500 [label=<gini = 0.0<br/>samples = 9<br/>value = [0, 9]>, fillcolor="#399de5"] ;
499 -> 500 ;
501 [label=<X<SUB>325</SUB> &le; 0.5<br/>gini = 0.444<br/>samples = 3<br/>value = [1, 2]>, fillcolor="#9ccef2"] ;
499 -> 501 ;
502 [label=<gini = 0.0<br/>samples = 2<br/>value = [0, 2]>, fillcolor="#399de5"] ;
501 -> 502 ;
503 [label=<gini = 0.0<br/>samples = 1<br/>value = [1, 0]>, fillcolor="#e58139"] ;
501 -> 503 ;
504 [label=<gini = 0.0<br/>samples = 1<br/>value = [1, 0]>, fillcolor="#e58139"] ;
492 -> 504 ;
505 [label=<gini = 0.0<br/>samples = 1<br/>value = [1, 0]>, fillcolor="#e58139"] ;
489 -> 505 ;
506 [label=<X<SUB>328</SUB> &le; 0.5<br/>gini = 0.498<br/>samples = 36<br/>value = [19, 17]>, fillcolor="#fcf2ea"] ;
488 -> 506 ;
507 [label=<X<SUB>355</SUB> &le; 0.5<br/>gini = 0.493<br/>samples = 34<br/>value = [19, 15]>, fillcolor="#fae4d5"] ;
506 -> 507 ;
508 [label=<X<SUB>337</SUB> &le; 0.5<br/>gini = 0.495<br/>samples = 20<br/>value = [9, 11]>, fillcolor="#dbedfa"] ;
507 -> 508 ;
509 [label=<X<SUB>3</SUB> &le; 1.5<br/>gini = 0.492<br/>samples = 16<br/>value = [9, 7]>, fillcolor="#f9e3d3"] ;
508 -> 509 ;
510 [label=<X<SUB>332</SUB> &le; 0.5<br/>gini = 0.375<br/>samples = 4<br/>value = [1, 3]>, fillcolor="#7bbeee"] ;
509 -> 510 ;
511 [label=<X<SUB>9</SUB> &le; 1.5<br/>gini = 0.5<br/>samples = 2<br/>value = [1, 1]>, fillcolor="#ffffff"] ;
510 -> 511 ;
512 [label=<gini = 0.0<br/>samples = 1<br/>value = [0, 1]>, fillcolor="#399de5"] ;
511 -> 512 ;
513 [label=<gini = 0.0<br/>samples = 1<br/>value = [1, 0]>, fillcolor="#e58139"] ;
511 -> 513 ;
514 [label=<gini = 0.0<br/>samples = 2<br/>value = [0, 2]>, fillcolor="#399de5"] ;
510 -> 514 ;
515 [label=<X<SUB>331</SUB> &le; 0.5<br/>gini = 0.444<br/>samples = 12<br/>value = [8, 4]>, fillcolor="#f2c09c"] ;
509 -> 515 ;
516 [label=<X<SUB>321</SUB> &le; 0.5<br/>gini = 0.245<br/>samples = 7<br/>value = [6, 1]>, fillcolor="#e9965a"] ;
515 -> 516 ;
517 [label=<gini = 0.0<br/>samples = 5<br/>value = [5, 0]>, fillcolor="#e58139"] ;
516 -> 517 ;
518 [label=<X<SUB>186</SUB> &le; 0.5<br/>gini = 0.5<br/>samples = 2<br/>value = [1, 1]>, fillcolor="#ffffff"] ;
516 -> 518 ;
519 [label=<gini = 0.0<br/>samples = 1<br/>value = [1, 0]>, fillcolor="#e58139"] ;
518 -> 519 ;
520 [label=<gini = 0.0<br/>samples = 1<br/>value = [0, 1]>, fillcolor="#399de5"] ;
518 -> 520 ;
521 [label=<X<SUB>325</SUB> &le; 0.5<br/>gini = 0.48<br/>samples = 5<br/>value = [2, 3]>, fillcolor="#bddef6"] ;
515 -> 521 ;
522 [label=<gini = 0.0<br/>samples = 1<br/>value = [1, 0]>, fillcolor="#e58139"] ;
521 -> 522 ;
523 [label=<X<SUB>4</SUB> &le; 149.0<br/>gini = 0.375<br/>samples = 4<br/>value = [1, 3]>, fillcolor="#7bbeee"] ;
521 -> 523 ;
524 [label=<gini = 0.0<br/>samples = 3<br/>value = [0, 3]>, fillcolor="#399de5"] ;
523 -> 524 ;
525 [label=<gini = 0.0<br/>samples = 1<br/>value = [1, 0]>, fillcolor="#e58139"] ;
523 -> 525 ;
526 [label=<gini = 0.0<br/>samples = 4<br/>value = [0, 4]>, fillcolor="#399de5"] ;
508 -> 526 ;
527 [label=<X<SUB>332</SUB> &le; 0.5<br/>gini = 0.408<br/>samples = 14<br/>value = [10, 4]>, fillcolor="#efb388"] ;
507 -> 527 ;
528 [label=<gini = 0.0<br/>samples = 6<br/>value = [6, 0]>, fillcolor="#e58139"] ;
527 -> 528 ;
529 [label=<X<SUB>3</SUB> &le; 2.5<br/>gini = 0.5<br/>samples = 8<br/>value = [4, 4]>, fillcolor="#ffffff"] ;
527 -> 529 ;
530 [label=<X<SUB>358</SUB> &le; 0.5<br/>gini = 0.375<br/>samples = 4<br/>value = [1, 3]>, fillcolor="#7bbeee"] ;
529 -> 530 ;
531 [label=<gini = 0.0<br/>samples = 1<br/>value = [1, 0]>, fillcolor="#e58139"] ;
530 -> 531 ;
532 [label=<gini = 0.0<br/>samples = 3<br/>value = [0, 3]>, fillcolor="#399de5"] ;
530 -> 532 ;
533 [label=<X<SUB>343</SUB> &le; 0.5<br/>gini = 0.375<br/>samples = 4<br/>value = [3, 1]>, fillcolor="#eeab7b"] ;
529 -> 533 ;
534 [label=<gini = 0.0<br/>samples = 3<br/>value = [3, 0]>, fillcolor="#e58139"] ;
533 -> 534 ;
535 [label=<gini = 0.0<br/>samples = 1<br/>value = [0, 1]>, fillcolor="#399de5"] ;
533 -> 535 ;
536 [label=<gini = 0.0<br/>samples = 2<br/>value = [0, 2]>, fillcolor="#399de5"] ;
506 -> 536 ;
537 [label=<gini = 0.0<br/>samples = 6<br/>value = [0, 6]>, fillcolor="#399de5"] ;
487 -> 537 ;
538 [label=<X<SUB>9</SUB> &le; 2.5<br/>gini = 0.483<br/>samples = 44<br/>value = [26, 18]>, fillcolor="#f7d8c2"] ;
392 -> 538 ;
539 [label=<X<SUB>4</SUB> &le; 33.5<br/>gini = 0.499<br/>samples = 27<br/>value = [13, 14]>, fillcolor="#f1f8fd"] ;
538 -> 539 ;
540 [label=<X<SUB>345</SUB> &le; 0.5<br/>gini = 0.426<br/>samples = 13<br/>value = [9, 4]>, fillcolor="#f1b991"] ;
539 -> 540 ;
541 [label=<gini = 0.0<br/>samples = 5<br/>value = [5, 0]>, fillcolor="#e58139"] ;
540 -> 541 ;
542 [label=<X<SUB>365</SUB> &le; 0.5<br/>gini = 0.5<br/>samples = 8<br/>value = [4, 4]>, fillcolor="#ffffff"] ;
540 -> 542 ;
543 [label=<X<SUB>328</SUB> &le; 0.5<br/>gini = 0.375<br/>samples = 4<br/>value = [3, 1]>, fillcolor="#eeab7b"] ;
542 -> 543 ;
544 [label=<gini = 0.0<br/>samples = 3<br/>value = [3, 0]>, fillcolor="#e58139"] ;
543 -> 544 ;
545 [label=<gini = 0.0<br/>samples = 1<br/>value = [0, 1]>, fillcolor="#399de5"] ;
543 -> 545 ;
546 [label=<X<SUB>4</SUB> &le; 24.0<br/>gini = 0.375<br/>samples = 4<br/>value = [1, 3]>, fillcolor="#7bbeee"] ;
542 -> 546 ;
547 [label=<gini = 0.0<br/>samples = 3<br/>value = [0, 3]>, fillcolor="#399de5"] ;
546 -> 547 ;
548 [label=<gini = 0.0<br/>samples = 1<br/>value = [1, 0]>, fillcolor="#e58139"] ;
546 -> 548 ;
549 [label=<X<SUB>321</SUB> &le; 0.5<br/>gini = 0.408<br/>samples = 14<br/>value = [4, 10]>, fillcolor="#88c4ef"] ;
539 -> 549 ;
550 [label=<X<SUB>324</SUB> &le; 0.5<br/>gini = 0.198<br/>samples = 9<br/>value = [1, 8]>, fillcolor="#52a9e8"] ;
549 -> 550 ;
551 [label=<X<SUB>3</SUB> &le; 2.5<br/>gini = 0.444<br/>samples = 3<br/>value = [1, 2]>, fillcolor="#9ccef2"] ;
550 -> 551 ;
552 [label=<gini = 0.0<br/>samples = 1<br/>value = [1, 0]>, fillcolor="#e58139"] ;
551 -> 552 ;
553 [label=<gini = 0.0<br/>samples = 2<br/>value = [0, 2]>, fillcolor="#399de5"] ;
551 -> 553 ;
554 [label=<gini = 0.0<br/>samples = 6<br/>value = [0, 6]>, fillcolor="#399de5"] ;
550 -> 554 ;
555 [label=<X<SUB>3</SUB> &le; 2.5<br/>gini = 0.48<br/>samples = 5<br/>value = [3, 2]>, fillcolor="#f6d5bd"] ;
549 -> 555 ;
556 [label=<gini = 0.0<br/>samples = 2<br/>value = [0, 2]>, fillcolor="#399de5"] ;
555 -> 556 ;
557 [label=<gini = 0.0<br/>samples = 3<br/>value = [3, 0]>, fillcolor="#e58139"] ;
555 -> 557 ;
558 [label=<X<SUB>349</SUB> &le; 0.5<br/>gini = 0.36<br/>samples = 17<br/>value = [13, 4]>, fillcolor="#eda876"] ;
538 -> 558 ;
559 [label=<X<SUB>357</SUB> &le; 0.5<br/>gini = 0.153<br/>samples = 12<br/>value = [11, 1]>, fillcolor="#e78c4b"] ;
558 -> 559 ;
560 [label=<gini = 0.0<br/>samples = 11<br/>value = [11, 0]>, fillcolor="#e58139"] ;
559 -> 560 ;
561 [label=<gini = 0.0<br/>samples = 1<br/>value = [0, 1]>, fillcolor="#399de5"] ;
559 -> 561 ;
562 [label=<X<SUB>355</SUB> &le; 0.5<br/>gini = 0.48<br/>samples = 5<br/>value = [2, 3]>, fillcolor="#bddef6"] ;
558 -> 562 ;
563 [label=<gini = 0.0<br/>samples = 3<br/>value = [0, 3]>, fillcolor="#399de5"] ;
562 -> 563 ;
564 [label=<gini = 0.0<br/>samples = 2<br/>value = [2, 0]>, fillcolor="#e58139"] ;
562 -> 564 ;
565 [label=<X<SUB>3</SUB> &le; 1.5<br/>gini = 0.488<br/>samples = 171<br/>value = [99, 72]>, fillcolor="#f8ddc9"] ;
391 -> 565 ;
566 [label=<X<SUB>370</SUB> &le; 0.5<br/>gini = 0.492<br/>samples = 80<br/>value = [35, 45]>, fillcolor="#d3e9f9"] ;
565 -> 566 ;
567 [label=<X<SUB>5</SUB> &le; 8.5<br/>gini = 0.499<br/>samples = 73<br/>value = [35, 38]>, fillcolor="#eff7fd"] ;
566 -> 567 ;
568 [label=<X<SUB>6</SUB> &le; 10.5<br/>gini = 0.496<br/>samples = 70<br/>value = [32, 38]>, fillcolor="#e0f0fb"] ;
567 -> 568 ;
569 [label=<X<SUB>348</SUB> &le; 0.5<br/>gini = 0.491<br/>samples = 67<br/>value = [29, 38]>, fillcolor="#d0e8f9"] ;
568 -> 569 ;
570 [label=<X<SUB>4</SUB> &le; 79.5<br/>gini = 0.32<br/>samples = 15<br/>value = [3, 12]>, fillcolor="#6ab6ec"] ;
569 -> 570 ;
571 [label=<X<SUB>342</SUB> &le; 0.5<br/>gini = 0.142<br/>samples = 13<br/>value = [1, 12]>, fillcolor="#49a5e7"] ;
570 -> 571 ;
572 [label=<gini = 0.0<br/>samples = 12<br/>value = [0, 12]>, fillcolor="#399de5"] ;
571 -> 572 ;
573 [label=<gini = 0.0<br/>samples = 1<br/>value = [1, 0]>, fillcolor="#e58139"] ;
571 -> 573 ;
574 [label=<gini = 0.0<br/>samples = 2<br/>value = [2, 0]>, fillcolor="#e58139"] ;
570 -> 574 ;
575 [label=<X<SUB>325</SUB> &le; 0.5<br/>gini = 0.5<br/>samples = 52<br/>value = [26, 26]>, fillcolor="#ffffff"] ;
569 -> 575 ;
576 [label=<X<SUB>9</SUB> &le; 4.5<br/>gini = 0.494<br/>samples = 47<br/>value = [21, 26]>, fillcolor="#d9ecfa"] ;
575 -> 576 ;
577 [label=<X<SUB>4</SUB> &le; 21.5<br/>gini = 0.457<br/>samples = 34<br/>value = [12, 22]>, fillcolor="#a5d2f3"] ;
576 -> 577 ;
578 [label=<X<SUB>323</SUB> &le; 0.5<br/>gini = 0.42<br/>samples = 10<br/>value = [7, 3]>, fillcolor="#f0b78e"] ;
577 -> 578 ;
579 [label=<X<SUB>4</SUB> &le; 13.0<br/>gini = 0.48<br/>samples = 5<br/>value = [2, 3]>, fillcolor="#bddef6"] ;
578 -> 579 ;
580 [label=<X<SUB>9</SUB> &le; 1.5<br/>gini = 0.375<br/>samples = 4<br/>value = [1, 3]>, fillcolor="#7bbeee"] ;
579 -> 580 ;
581 [label=<gini = 0.0<br/>samples = 1<br/>value = [1, 0]>, fillcolor="#e58139"] ;
580 -> 581 ;
582 [label=<gini = 0.0<br/>samples = 3<br/>value = [0, 3]>, fillcolor="#399de5"] ;
580 -> 582 ;
583 [label=<gini = 0.0<br/>samples = 1<br/>value = [1, 0]>, fillcolor="#e58139"] ;
579 -> 583 ;
584 [label=<gini = 0.0<br/>samples = 5<br/>value = [5, 0]>, fillcolor="#e58139"] ;
578 -> 584 ;
585 [label=<X<SUB>366</SUB> &le; 0.5<br/>gini = 0.33<br/>samples = 24<br/>value = [5, 19]>, fillcolor="#6db7ec"] ;
577 -> 585 ;
586 [label=<X<SUB>339</SUB> &le; 0.5<br/>gini = 0.287<br/>samples = 23<br/>value = [4, 19]>, fillcolor="#63b2ea"] ;
585 -> 586 ;
587 [label=<X<SUB>337</SUB> &le; 0.5<br/>gini = 0.236<br/>samples = 22<br/>value = [3, 19]>, fillcolor="#58ace9"] ;
586 -> 587 ;
588 [label=<X<SUB>367</SUB> &le; 0.5<br/>gini = 0.105<br/>samples = 18<br/>value = [1, 17]>, fillcolor="#45a3e7"] ;
587 -> 588 ;
589 [label=<gini = 0.0<br/>samples = 15<br/>value = [0, 15]>, fillcolor="#399de5"] ;
588 -> 589 ;
590 [label=<X<SUB>2</SUB> &le; 0.5<br/>gini = 0.444<br/>samples = 3<br/>value = [1, 2]>, fillcolor="#9ccef2"] ;
588 -> 590 ;
591 [label=<gini = 0.0<br/>samples = 2<br/>value = [0, 2]>, fillcolor="#399de5"] ;
590 -> 591 ;
592 [label=<gini = 0.0<br/>samples = 1<br/>value = [1, 0]>, fillcolor="#e58139"] ;
590 -> 592 ;
593 [label=<X<SUB>355</SUB> &le; 0.5<br/>gini = 0.5<br/>samples = 4<br/>value = [2, 2]>, fillcolor="#ffffff"] ;
587 -> 593 ;
594 [label=<gini = 0.0<br/>samples = 2<br/>value = [2, 0]>, fillcolor="#e58139"] ;
593 -> 594 ;
595 [label=<gini = 0.0<br/>samples = 2<br/>value = [0, 2]>, fillcolor="#399de5"] ;
593 -> 595 ;
596 [label=<gini = 0.0<br/>samples = 1<br/>value = [1, 0]>, fillcolor="#e58139"] ;
586 -> 596 ;
597 [label=<gini = 0.0<br/>samples = 1<br/>value = [1, 0]>, fillcolor="#e58139"] ;
585 -> 597 ;
598 [label=<X<SUB>345</SUB> &le; 0.5<br/>gini = 0.426<br/>samples = 13<br/>value = [9, 4]>, fillcolor="#f1b991"] ;
576 -> 598 ;
599 [label=<gini = 0.0<br/>samples = 5<br/>value = [5, 0]>, fillcolor="#e58139"] ;
598 -> 599 ;
600 [label=<X<SUB>5</SUB> &le; 3.5<br/>gini = 0.5<br/>samples = 8<br/>value = [4, 4]>, fillcolor="#ffffff"] ;
598 -> 600 ;
601 [label=<gini = 0.0<br/>samples = 2<br/>value = [0, 2]>, fillcolor="#399de5"] ;
600 -> 601 ;
602 [label=<X<SUB>355</SUB> &le; 0.5<br/>gini = 0.444<br/>samples = 6<br/>value = [4, 2]>, fillcolor="#f2c09c"] ;
600 -> 602 ;
603 [label=<gini = 0.0<br/>samples = 3<br/>value = [3, 0]>, fillcolor="#e58139"] ;
602 -> 603 ;
604 [label=<X<SUB>2</SUB> &le; 0.5<br/>gini = 0.444<br/>samples = 3<br/>value = [1, 2]>, fillcolor="#9ccef2"] ;
602 -> 604 ;
605 [label=<gini = 0.0<br/>samples = 1<br/>value = [1, 0]>, fillcolor="#e58139"] ;
604 -> 605 ;
606 [label=<gini = 0.0<br/>samples = 2<br/>value = [0, 2]>, fillcolor="#399de5"] ;
604 -> 606 ;
607 [label=<gini = 0.0<br/>samples = 5<br/>value = [5, 0]>, fillcolor="#e58139"] ;
575 -> 607 ;
608 [label=<gini = 0.0<br/>samples = 3<br/>value = [3, 0]>, fillcolor="#e58139"] ;
568 -> 608 ;
609 [label=<gini = 0.0<br/>samples = 3<br/>value = [3, 0]>, fillcolor="#e58139"] ;
567 -> 609 ;
610 [label=<gini = 0.0<br/>samples = 7<br/>value = [0, 7]>, fillcolor="#399de5"] ;
566 -> 610 ;
611 [label=<X<SUB>232</SUB> &le; 0.5<br/>gini = 0.417<br/>samples = 91<br/>value = [64, 27]>, fillcolor="#f0b68d"] ;
565 -> 611 ;
612 [label=<X<SUB>322</SUB> &le; 0.5<br/>gini = 0.397<br/>samples = 88<br/>value = [64, 24]>, fillcolor="#efb083"] ;
611 -> 612 ;
613 [label=<X<SUB>356</SUB> &le; 0.5<br/>gini = 0.302<br/>samples = 54<br/>value = [44, 10]>, fillcolor="#eb9e66"] ;
612 -> 613 ;
614 [label=<X<SUB>363</SUB> &le; 0.5<br/>gini = 0.223<br/>samples = 47<br/>value = [41, 6]>, fillcolor="#e99356"] ;
613 -> 614 ;
615 [label=<X<SUB>370</SUB> &le; 0.5<br/>gini = 0.194<br/>samples = 46<br/>value = [41, 5]>, fillcolor="#e89051"] ;
614 -> 615 ;
616 [label=<X<SUB>333</SUB> &le; 0.5<br/>gini = 0.165<br/>samples = 44<br/>value = [40, 4]>, fillcolor="#e88e4d"] ;
615 -> 616 ;
617 [label=<X<SUB>4</SUB> &le; 195.0<br/>gini = 0.133<br/>samples = 42<br/>value = [39, 3]>, fillcolor="#e78b48"] ;
616 -> 617 ;
618 [label=<X<SUB>8</SUB> &le; 0.5<br/>gini = 0.095<br/>samples = 40<br/>value = [38, 2]>, fillcolor="#e68843"] ;
617 -> 618 ;
619 [label=<X<SUB>335</SUB> &le; 0.5<br/>gini = 0.051<br/>samples = 38<br/>value = [37, 1]>, fillcolor="#e6843e"] ;
618 -> 619 ;
620 [label=<gini = 0.0<br/>samples = 34<br/>value = [34, 0]>, fillcolor="#e58139"] ;
619 -> 620 ;
621 [label=<X<SUB>4</SUB> &le; 15.5<br/>gini = 0.375<br/>samples = 4<br/>value = [3, 1]>, fillcolor="#eeab7b"] ;
619 -> 621 ;
622 [label=<gini = 0.0<br/>samples = 1<br/>value = [0, 1]>, fillcolor="#399de5"] ;
621 -> 622 ;
623 [label=<gini = 0.0<br/>samples = 3<br/>value = [3, 0]>, fillcolor="#e58139"] ;
621 -> 623 ;
624 [label=<X<SUB>343</SUB> &le; 0.5<br/>gini = 0.5<br/>samples = 2<br/>value = [1, 1]>, fillcolor="#ffffff"] ;
618 -> 624 ;
625 [label=<gini = 0.0<br/>samples = 1<br/>value = [1, 0]>, fillcolor="#e58139"] ;
624 -> 625 ;
626 [label=<gini = 0.0<br/>samples = 1<br/>value = [0, 1]>, fillcolor="#399de5"] ;
624 -> 626 ;
627 [label=<X<SUB>4</SUB> &le; 301.0<br/>gini = 0.5<br/>samples = 2<br/>value = [1, 1]>, fillcolor="#ffffff"] ;
617 -> 627 ;
628 [label=<gini = 0.0<br/>samples = 1<br/>value = [0, 1]>, fillcolor="#399de5"] ;
627 -> 628 ;
629 [label=<gini = 0.0<br/>samples = 1<br/>value = [1, 0]>, fillcolor="#e58139"] ;
627 -> 629 ;
630 [label=<X<SUB>351</SUB> &le; 0.5<br/>gini = 0.5<br/>samples = 2<br/>value = [1, 1]>, fillcolor="#ffffff"] ;
616 -> 630 ;
631 [label=<gini = 0.0<br/>samples = 1<br/>value = [0, 1]>, fillcolor="#399de5"] ;
630 -> 631 ;
632 [label=<gini = 0.0<br/>samples = 1<br/>value = [1, 0]>, fillcolor="#e58139"] ;
630 -> 632 ;
633 [label=<X<SUB>332</SUB> &le; 0.5<br/>gini = 0.5<br/>samples = 2<br/>value = [1, 1]>, fillcolor="#ffffff"] ;
615 -> 633 ;
634 [label=<gini = 0.0<br/>samples = 1<br/>value = [0, 1]>, fillcolor="#399de5"] ;
633 -> 634 ;
635 [label=<gini = 0.0<br/>samples = 1<br/>value = [1, 0]>, fillcolor="#e58139"] ;
633 -> 635 ;
636 [label=<gini = 0.0<br/>samples = 1<br/>value = [0, 1]>, fillcolor="#399de5"] ;
614 -> 636 ;
637 [label=<X<SUB>325</SUB> &le; 0.5<br/>gini = 0.49<br/>samples = 7<br/>value = [3, 4]>, fillcolor="#cee6f8"] ;
613 -> 637 ;
638 [label=<gini = 0.0<br/>samples = 4<br/>value = [0, 4]>, fillcolor="#399de5"] ;
637 -> 638 ;
639 [label=<gini = 0.0<br/>samples = 3<br/>value = [3, 0]>, fillcolor="#e58139"] ;
637 -> 639 ;
640 [label=<X<SUB>9</SUB> &le; 3.5<br/>gini = 0.484<br/>samples = 34<br/>value = [20, 14]>, fillcolor="#f7d9c4"] ;
612 -> 640 ;
641 [label=<X<SUB>4</SUB> &le; 249.5<br/>gini = 0.375<br/>samples = 20<br/>value = [15, 5]>, fillcolor="#eeab7b"] ;
640 -> 641 ;
642 [label=<X<SUB>342</SUB> &le; 0.5<br/>gini = 0.332<br/>samples = 19<br/>value = [15, 4]>, fillcolor="#eca36e"] ;
641 -> 642 ;
643 [label=<X<SUB>3</SUB> &le; 2.5<br/>gini = 0.278<br/>samples = 18<br/>value = [15, 3]>, fillcolor="#ea9a61"] ;
642 -> 643 ;
644 [label=<X<SUB>331</SUB> &le; 0.5<br/>gini = 0.42<br/>samples = 10<br/>value = [7, 3]>, fillcolor="#f0b78e"] ;
643 -> 644 ;
645 [label=<X<SUB>4</SUB> &le; 5.5<br/>gini = 0.245<br/>samples = 7<br/>value = [6, 1]>, fillcolor="#e9965a"] ;
644 -> 645 ;
646 [label=<X<SUB>355</SUB> &le; 0.5<br/>gini = 0.5<br/>samples = 2<br/>value = [1, 1]>, fillcolor="#ffffff"] ;
645 -> 646 ;
647 [label=<gini = 0.0<br/>samples = 1<br/>value = [0, 1]>, fillcolor="#399de5"] ;
646 -> 647 ;
648 [label=<gini = 0.0<br/>samples = 1<br/>value = [1, 0]>, fillcolor="#e58139"] ;
646 -> 648 ;
649 [label=<gini = 0.0<br/>samples = 5<br/>value = [5, 0]>, fillcolor="#e58139"] ;
645 -> 649 ;
650 [label=<X<SUB>346</SUB> &le; 0.5<br/>gini = 0.444<br/>samples = 3<br/>value = [1, 2]>, fillcolor="#9ccef2"] ;
644 -> 650 ;
651 [label=<gini = 0.0<br/>samples = 2<br/>value = [0, 2]>, fillcolor="#399de5"] ;
650 -> 651 ;
652 [label=<gini = 0.0<br/>samples = 1<br/>value = [1, 0]>, fillcolor="#e58139"] ;
650 -> 652 ;
653 [label=<gini = 0.0<br/>samples = 8<br/>value = [8, 0]>, fillcolor="#e58139"] ;
643 -> 653 ;
654 [label=<gini = 0.0<br/>samples = 1<br/>value = [0, 1]>, fillcolor="#399de5"] ;
642 -> 654 ;
655 [label=<gini = 0.0<br/>samples = 1<br/>value = [0, 1]>, fillcolor="#399de5"] ;
641 -> 655 ;
656 [label=<X<SUB>320</SUB> &le; 0.5<br/>gini = 0.459<br/>samples = 14<br/>value = [5, 9]>, fillcolor="#a7d3f3"] ;
640 -> 656 ;
657 [label=<X<SUB>351</SUB> &le; 0.5<br/>gini = 0.346<br/>samples = 9<br/>value = [2, 7]>, fillcolor="#72b9ec"] ;
656 -> 657 ;
658 [label=<X<SUB>6</SUB> &le; 15.0<br/>gini = 0.219<br/>samples = 8<br/>value = [1, 7]>, fillcolor="#55abe9"] ;
657 -> 658 ;
659 [label=<gini = 0.0<br/>samples = 7<br/>value = [0, 7]>, fillcolor="#399de5"] ;
658 -> 659 ;
660 [label=<gini = 0.0<br/>samples = 1<br/>value = [1, 0]>, fillcolor="#e58139"] ;
658 -> 660 ;
661 [label=<gini = 0.0<br/>samples = 1<br/>value = [1, 0]>, fillcolor="#e58139"] ;
657 -> 661 ;
662 [label=<X<SUB>4</SUB> &le; 64.0<br/>gini = 0.48<br/>samples = 5<br/>value = [3, 2]>, fillcolor="#f6d5bd"] ;
656 -> 662 ;
663 [label=<X<SUB>4</SUB> &le; 15.0<br/>gini = 0.444<br/>samples = 3<br/>value = [1, 2]>, fillcolor="#9ccef2"] ;
662 -> 663 ;
664 [label=<gini = 0.0<br/>samples = 1<br/>value = [1, 0]>, fillcolor="#e58139"] ;
663 -> 664 ;
665 [label=<gini = 0.0<br/>samples = 2<br/>value = [0, 2]>, fillcolor="#399de5"] ;
663 -> 665 ;
666 [label=<gini = 0.0<br/>samples = 2<br/>value = [2, 0]>, fillcolor="#e58139"] ;
662 -> 666 ;
667 [label=<gini = 0.0<br/>samples = 3<br/>value = [0, 3]>, fillcolor="#399de5"] ;
611 -> 667 ;
668 [label=<X<SUB>2</SUB> &le; 0.5<br/>gini = 0.336<br/>samples = 75<br/>value = [16, 59]>, fillcolor="#6fb8ec"] ;
390 -> 668 ;
669 [label=<X<SUB>3</SUB> &le; 1.5<br/>gini = 0.5<br/>samples = 12<br/>value = [6, 6]>, fillcolor="#ffffff"] ;
668 -> 669 ;
670 [label=<X<SUB>4</SUB> &le; 22.0<br/>gini = 0.375<br/>samples = 8<br/>value = [2, 6]>, fillcolor="#7bbeee"] ;
669 -> 670 ;
671 [label=<gini = 0.0<br/>samples = 1<br/>value = [1, 0]>, fillcolor="#e58139"] ;
670 -> 671 ;
672 [label=<X<SUB>5</SUB> &le; 6.5<br/>gini = 0.245<br/>samples = 7<br/>value = [1, 6]>, fillcolor="#5aade9"] ;
670 -> 672 ;
673 [label=<gini = 0.0<br/>samples = 5<br/>value = [0, 5]>, fillcolor="#399de5"] ;
672 -> 673 ;
674 [label=<X<SUB>4</SUB> &le; 33.0<br/>gini = 0.5<br/>samples = 2<br/>value = [1, 1]>, fillcolor="#ffffff"] ;
672 -> 674 ;
675 [label=<gini = 0.0<br/>samples = 1<br/>value = [0, 1]>, fillcolor="#399de5"] ;
674 -> 675 ;
676 [label=<gini = 0.0<br/>samples = 1<br/>value = [1, 0]>, fillcolor="#e58139"] ;
674 -> 676 ;
677 [label=<gini = 0.0<br/>samples = 4<br/>value = [4, 0]>, fillcolor="#e58139"] ;
669 -> 677 ;
678 [label=<X<SUB>333</SUB> &le; 0.5<br/>gini = 0.267<br/>samples = 63<br/>value = [10, 53]>, fillcolor="#5eafea"] ;
668 -> 678 ;
679 [label=<X<SUB>9</SUB> &le; 29.0<br/>gini = 0.231<br/>samples = 60<br/>value = [8, 52]>, fillcolor="#57ace9"] ;
678 -> 679 ;
680 [label=<X<SUB>320</SUB> &le; 0.5<br/>gini = 0.209<br/>samples = 59<br/>value = [7, 52]>, fillcolor="#54aae8"] ;
679 -> 680 ;
681 [label=<X<SUB>375</SUB> &le; 0.5<br/>gini = 0.127<br/>samples = 44<br/>value = [3, 41]>, fillcolor="#47a4e7"] ;
680 -> 681 ;
682 [label=<X<SUB>3</SUB> &le; 2.5<br/>gini = 0.054<br/>samples = 36<br/>value = [1, 35]>, fillcolor="#3fa0e6"] ;
681 -> 682 ;
683 [label=<gini = 0.0<br/>samples = 29<br/>value = [0, 29]>, fillcolor="#399de5"] ;
682 -> 683 ;
684 [label=<X<SUB>4</SUB> &le; 15.5<br/>gini = 0.245<br/>samples = 7<br/>value = [1, 6]>, fillcolor="#5aade9"] ;
682 -> 684 ;
685 [label=<gini = 0.0<br/>samples = 1<br/>value = [1, 0]>, fillcolor="#e58139"] ;
684 -> 685 ;
686 [label=<gini = 0.0<br/>samples = 6<br/>value = [0, 6]>, fillcolor="#399de5"] ;
684 -> 686 ;
687 [label=<X<SUB>337</SUB> &le; 0.5<br/>gini = 0.375<br/>samples = 8<br/>value = [2, 6]>, fillcolor="#7bbeee"] ;
681 -> 687 ;
688 [label=<X<SUB>341</SUB> &le; 0.5<br/>gini = 0.245<br/>samples = 7<br/>value = [1, 6]>, fillcolor="#5aade9"] ;
687 -> 688 ;
689 [label=<gini = 0.0<br/>samples = 6<br/>value = [0, 6]>, fillcolor="#399de5"] ;
688 -> 689 ;
690 [label=<gini = 0.0<br/>samples = 1<br/>value = [1, 0]>, fillcolor="#e58139"] ;
688 -> 690 ;
691 [label=<gini = 0.0<br/>samples = 1<br/>value = [1, 0]>, fillcolor="#e58139"] ;
687 -> 691 ;
692 [label=<X<SUB>5</SUB> &le; 8.5<br/>gini = 0.391<br/>samples = 15<br/>value = [4, 11]>, fillcolor="#81c1ee"] ;
680 -> 692 ;
693 [label=<X<SUB>6</SUB> &le; 100.0<br/>gini = 0.26<br/>samples = 13<br/>value = [2, 11]>, fillcolor="#5dafea"] ;
692 -> 693 ;
694 [label=<X<SUB>4</SUB> &le; 5.0<br/>gini = 0.153<br/>samples = 12<br/>value = [1, 11]>, fillcolor="#4ba6e7"] ;
693 -> 694 ;
695 [label=<X<SUB>337</SUB> &le; 0.5<br/>gini = 0.5<br/>samples = 2<br/>value = [1, 1]>, fillcolor="#ffffff"] ;
694 -> 695 ;
696 [label=<gini = 0.0<br/>samples = 1<br/>value = [1, 0]>, fillcolor="#e58139"] ;
695 -> 696 ;
697 [label=<gini = 0.0<br/>samples = 1<br/>value = [0, 1]>, fillcolor="#399de5"] ;
695 -> 697 ;
698 [label=<gini = 0.0<br/>samples = 10<br/>value = [0, 10]>, fillcolor="#399de5"] ;
694 -> 698 ;
699 [label=<gini = 0.0<br/>samples = 1<br/>value = [1, 0]>, fillcolor="#e58139"] ;
693 -> 699 ;
700 [label=<gini = 0.0<br/>samples = 2<br/>value = [2, 0]>, fillcolor="#e58139"] ;
692 -> 700 ;
701 [label=<gini = 0.0<br/>samples = 1<br/>value = [1, 0]>, fillcolor="#e58139"] ;
679 -> 701 ;
702 [label=<X<SUB>343</SUB> &le; 0.5<br/>gini = 0.444<br/>samples = 3<br/>value = [2, 1]>, fillcolor="#f2c09c"] ;
678 -> 702 ;
703 [label=<gini = 0.0<br/>samples = 2<br/>value = [2, 0]>, fillcolor="#e58139"] ;
702 -> 703 ;
704 [label=<gini = 0.0<br/>samples = 1<br/>value = [0, 1]>, fillcolor="#399de5"] ;
702 -> 704 ;
705 [label=<X<SUB>358</SUB> &le; 0.5<br/>gini = 0.239<br/>samples = 5143<br/>value = [715, 4428]>, fillcolor="#59ade9"] ;
1 -> 705 ;
706 [label=<X<SUB>363</SUB> &le; 0.5<br/>gini = 0.409<br/>samples = 569<br/>value = [163, 406]>, fillcolor="#88c4ef"] ;
705 -> 706 ;
707 [label=<X<SUB>366</SUB> &le; 0.5<br/>gini = 0.382<br/>samples = 544<br/>value = [140, 404]>, fillcolor="#7ebfee"] ;
706 -> 707 ;
708 [label=<X<SUB>9</SUB> &le; 10.5<br/>gini = 0.335<br/>samples = 489<br/>value = [104, 385]>, fillcolor="#6eb7ec"] ;
707 -> 708 ;
709 [label=<X<SUB>9</SUB> &le; 0.5<br/>gini = 0.309<br/>samples = 461<br/>value = [88, 373]>, fillcolor="#68b4eb"] ;
708 -> 709 ;
710 [label=<X<SUB>0</SUB> &le; 0.5<br/>gini = 0.444<br/>samples = 6<br/>value = [4, 2]>, fillcolor="#f2c09c"] ;
709 -> 710 ;
711 [label=<gini = 0.0<br/>samples = 4<br/>value = [4, 0]>, fillcolor="#e58139"] ;
710 -> 711 ;
712 [label=<gini = 0.0<br/>samples = 2<br/>value = [0, 2]>, fillcolor="#399de5"] ;
710 -> 712 ;
713 [label=<X<SUB>4</SUB> &le; 8.5<br/>gini = 0.301<br/>samples = 455<br/>value = [84, 371]>, fillcolor="#66b3eb"] ;
709 -> 713 ;
714 [label=<X<SUB>147</SUB> &le; 0.5<br/>gini = 0.444<br/>samples = 57<br/>value = [19, 38]>, fillcolor="#9ccef2"] ;
713 -> 714 ;
715 [label=<X<SUB>322</SUB> &le; 0.5<br/>gini = 0.495<br/>samples = 40<br/>value = [18, 22]>, fillcolor="#dbedfa"] ;
714 -> 715 ;
716 [label=<X<SUB>104</SUB> &le; 0.5<br/>gini = 0.375<br/>samples = 16<br/>value = [4, 12]>, fillcolor="#7bbeee"] ;
715 -> 716 ;
717 [label=<X<SUB>184</SUB> &le; 0.5<br/>gini = 0.32<br/>samples = 15<br/>value = [3, 12]>, fillcolor="#6ab6ec"] ;
716 -> 717 ;
718 [label=<X<SUB>5</SUB> &le; 6.5<br/>gini = 0.245<br/>samples = 14<br/>value = [2, 12]>, fillcolor="#5aade9"] ;
717 -> 718 ;
719 [label=<X<SUB>310</SUB> &le; 0.5<br/>gini = 0.142<br/>samples = 13<br/>value = [1, 12]>, fillcolor="#49a5e7"] ;
718 -> 719 ;
720 [label=<gini = 0.0<br/>samples = 12<br/>value = [0, 12]>, fillcolor="#399de5"] ;
719 -> 720 ;
721 [label=<gini = 0.0<br/>samples = 1<br/>value = [1, 0]>, fillcolor="#e58139"] ;
719 -> 721 ;
722 [label=<gini = 0.0<br/>samples = 1<br/>value = [1, 0]>, fillcolor="#e58139"] ;
718 -> 722 ;
723 [label=<gini = 0.0<br/>samples = 1<br/>value = [1, 0]>, fillcolor="#e58139"] ;
717 -> 723 ;
724 [label=<gini = 0.0<br/>samples = 1<br/>value = [1, 0]>, fillcolor="#e58139"] ;
716 -> 724 ;
725 [label=<X<SUB>320</SUB> &le; 0.5<br/>gini = 0.486<br/>samples = 24<br/>value = [14, 10]>, fillcolor="#f8dbc6"] ;
715 -> 725 ;
726 [label=<X<SUB>337</SUB> &le; 0.5<br/>gini = 0.469<br/>samples = 16<br/>value = [6, 10]>, fillcolor="#b0d8f5"] ;
725 -> 726 ;
727 [label=<X<SUB>324</SUB> &le; 0.5<br/>gini = 0.375<br/>samples = 12<br/>value = [3, 9]>, fillcolor="#7bbeee"] ;
726 -> 727 ;
728 [label=<gini = 0.0<br/>samples = 7<br/>value = [0, 7]>, fillcolor="#399de5"] ;
727 -> 728 ;
729 [label=<X<SUB>9</SUB> &le; 2.5<br/>gini = 0.48<br/>samples = 5<br/>value = [3, 2]>, fillcolor="#f6d5bd"] ;
727 -> 729 ;
730 [label=<gini = 0.0<br/>samples = 3<br/>value = [3, 0]>, fillcolor="#e58139"] ;
729 -> 730 ;
731 [label=<gini = 0.0<br/>samples = 2<br/>value = [0, 2]>, fillcolor="#399de5"] ;
729 -> 731 ;
732 [label=<X<SUB>9</SUB> &le; 1.5<br/>gini = 0.375<br/>samples = 4<br/>value = [3, 1]>, fillcolor="#eeab7b"] ;
726 -> 732 ;
733 [label=<gini = 0.0<br/>samples = 1<br/>value = [0, 1]>, fillcolor="#399de5"] ;
732 -> 733 ;
734 [label=<gini = 0.0<br/>samples = 3<br/>value = [3, 0]>, fillcolor="#e58139"] ;
732 -> 734 ;
735 [label=<gini = 0.0<br/>samples = 8<br/>value = [8, 0]>, fillcolor="#e58139"] ;
725 -> 735 ;
736 [label=<X<SUB>361</SUB> &le; 0.5<br/>gini = 0.111<br/>samples = 17<br/>value = [1, 16]>, fillcolor="#45a3e7"] ;
714 -> 736 ;
737 [label=<gini = 0.0<br/>samples = 16<br/>value = [0, 16]>, fillcolor="#399de5"] ;
736 -> 737 ;
738 [label=<gini = 0.0<br/>samples = 1<br/>value = [1, 0]>, fillcolor="#e58139"] ;
736 -> 738 ;
739 [label=<X<SUB>271</SUB> &le; 0.5<br/>gini = 0.273<br/>samples = 398<br/>value = [65, 333]>, fillcolor="#60b0ea"] ;
713 -> 739 ;
740 [label=<X<SUB>368</SUB> &le; 0.5<br/>gini = 0.268<br/>samples = 396<br/>value = [63, 333]>, fillcolor="#5eb0ea"] ;
739 -> 740 ;
741 [label=<X<SUB>336</SUB> &le; 0.5<br/>gini = 0.254<br/>samples = 381<br/>value = [57, 324]>, fillcolor="#5caeea"] ;
740 -> 741 ;
742 [label=<X<SUB>226</SUB> &le; 0.5<br/>gini = 0.234<br/>samples = 355<br/>value = [48, 307]>, fillcolor="#58ace9"] ;
741 -> 742 ;
743 [label=<X<SUB>3</SUB> &le; 2.5<br/>gini = 0.23<br/>samples = 354<br/>value = [47, 307]>, fillcolor="#57ace9"] ;
742 -> 743 ;
744 [label=<X<SUB>170</SUB> &le; 0.5<br/>gini = 0.173<br/>samples = 219<br/>value = [21, 198]>, fillcolor="#4ea7e8"] ;
743 -> 744 ;
745 [label=<X<SUB>9</SUB> &le; 1.5<br/>gini = 0.16<br/>samples = 216<br/>value = [19, 197]>, fillcolor="#4ca6e8"] ;
744 -> 745 ;
746 [label=<X<SUB>331</SUB> &le; 0.5<br/>gini = 0.36<br/>samples = 34<br/>value = [8, 26]>, fillcolor="#76bbed"] ;
745 -> 746 ;
747 [label=<X<SUB>353</SUB> &le; 0.5<br/>gini = 0.454<br/>samples = 23<br/>value = [8, 15]>, fillcolor="#a3d1f3"] ;
746 -> 747 ;
748 [label=<X<SUB>346</SUB> &le; 0.5<br/>gini = 0.26<br/>samples = 13<br/>value = [2, 11]>, fillcolor="#5dafea"] ;
747 -> 748 ;
749 [label=<X<SUB>5</SUB> &le; 6.0<br/>gini = 0.153<br/>samples = 12<br/>value = [1, 11]>, fillcolor="#4ba6e7"] ;
748 -> 749 ;
750 [label=<gini = 0.0<br/>samples = 10<br/>value = [0, 10]>, fillcolor="#399de5"] ;
749 -> 750 ;
751 [label=<X<SUB>5</SUB> &le; 11.5<br/>gini = 0.5<br/>samples = 2<br/>value = [1, 1]>, fillcolor="#ffffff"] ;
749 -> 751 ;
752 [label=<gini = 0.0<br/>samples = 1<br/>value = [1, 0]>, fillcolor="#e58139"] ;
751 -> 752 ;
753 [label=<gini = 0.0<br/>samples = 1<br/>value = [0, 1]>, fillcolor="#399de5"] ;
751 -> 753 ;
754 [label=<gini = 0.0<br/>samples = 1<br/>value = [1, 0]>, fillcolor="#e58139"] ;
748 -> 754 ;
755 [label=<X<SUB>344</SUB> &le; 0.5<br/>gini = 0.48<br/>samples = 10<br/>value = [6, 4]>, fillcolor="#f6d5bd"] ;
747 -> 755 ;
756 [label=<X<SUB>332</SUB> &le; 0.5<br/>gini = 0.444<br/>samples = 6<br/>value = [2, 4]>, fillcolor="#9ccef2"] ;
755 -> 756 ;
757 [label=<X<SUB>337</SUB> &le; 0.5<br/>gini = 0.444<br/>samples = 3<br/>value = [2, 1]>, fillcolor="#f2c09c"] ;
756 -> 757 ;
758 [label=<gini = 0.0<br/>samples = 2<br/>value = [2, 0]>, fillcolor="#e58139"] ;
757 -> 758 ;
759 [label=<gini = 0.0<br/>samples = 1<br/>value = [0, 1]>, fillcolor="#399de5"] ;
757 -> 759 ;
760 [label=<gini = 0.0<br/>samples = 3<br/>value = [0, 3]>, fillcolor="#399de5"] ;
756 -> 760 ;
761 [label=<gini = 0.0<br/>samples = 4<br/>value = [4, 0]>, fillcolor="#e58139"] ;
755 -> 761 ;
762 [label=<gini = 0.0<br/>samples = 11<br/>value = [0, 11]>, fillcolor="#399de5"] ;
746 -> 762 ;
763 [label=<X<SUB>375</SUB> &le; 0.5<br/>gini = 0.114<br/>samples = 182<br/>value = [11, 171]>, fillcolor="#46a3e7"] ;
745 -> 763 ;
764 [label=<X<SUB>4</SUB> &le; 199.5<br/>gini = 0.059<br/>samples = 132<br/>value = [4, 128]>, fillcolor="#3fa0e6"] ;
763 -> 764 ;
765 [label=<X<SUB>342</SUB> &le; 0.5<br/>gini = 0.045<br/>samples = 130<br/>value = [3, 127]>, fillcolor="#3e9fe6"] ;
764 -> 765 ;
766 [label=<X<SUB>8</SUB> &le; 0.5<br/>gini = 0.031<br/>samples = 125<br/>value = [2, 123]>, fillcolor="#3c9fe5"] ;
765 -> 766 ;
767 [label=<X<SUB>340</SUB> &le; 0.5<br/>gini = 0.017<br/>samples = 119<br/>value = [1, 118]>, fillcolor="#3b9ee5"] ;
766 -> 767 ;
768 [label=<gini = 0.0<br/>samples = 112<br/>value = [0, 112]>, fillcolor="#399de5"] ;
767 -> 768 ;
769 [label=<X<SUB>365</SUB> &le; 0.5<br/>gini = 0.245<br/>samples = 7<br/>value = [1, 6]>, fillcolor="#5aade9"] ;
767 -> 769 ;
770 [label=<gini = 0.0<br/>samples = 1<br/>value = [1, 0]>, fillcolor="#e58139"] ;
769 -> 770 ;
771 [label=<gini = 0.0<br/>samples = 6<br/>value = [0, 6]>, fillcolor="#399de5"] ;
769 -> 771 ;
772 [label=<X<SUB>353</SUB> &le; 0.5<br/>gini = 0.278<br/>samples = 6<br/>value = [1, 5]>, fillcolor="#61b1ea"] ;
766 -> 772 ;
773 [label=<gini = 0.0<br/>samples = 5<br/>value = [0, 5]>, fillcolor="#399de5"] ;
772 -> 773 ;
774 [label=<gini = 0.0<br/>samples = 1<br/>value = [1, 0]>, fillcolor="#e58139"] ;
772 -> 774 ;
775 [label=<X<SUB>146</SUB> &le; 0.5<br/>gini = 0.32<br/>samples = 5<br/>value = [1, 4]>, fillcolor="#6ab6ec"] ;
765 -> 775 ;
776 [label=<gini = 0.0<br/>samples = 4<br/>value = [0, 4]>, fillcolor="#399de5"] ;
775 -> 776 ;
777 [label=<gini = 0.0<br/>samples = 1<br/>value = [1, 0]>, fillcolor="#e58139"] ;
775 -> 777 ;
778 [label=<X<SUB>321</SUB> &le; 0.5<br/>gini = 0.5<br/>samples = 2<br/>value = [1, 1]>, fillcolor="#ffffff"] ;
764 -> 778 ;
779 [label=<gini = 0.0<br/>samples = 1<br/>value = [0, 1]>, fillcolor="#399de5"] ;
778 -> 779 ;
780 [label=<gini = 0.0<br/>samples = 1<br/>value = [1, 0]>, fillcolor="#e58139"] ;
778 -> 780 ;
781 [label=<X<SUB>334</SUB> &le; 0.5<br/>gini = 0.241<br/>samples = 50<br/>value = [7, 43]>, fillcolor="#59ade9"] ;
763 -> 781 ;
782 [label=<X<SUB>330</SUB> &le; 0.5<br/>gini = 0.187<br/>samples = 48<br/>value = [5, 43]>, fillcolor="#50a8e8"] ;
781 -> 782 ;
783 [label=<X<SUB>341</SUB> &le; 0.5<br/>gini = 0.156<br/>samples = 47<br/>value = [4, 43]>, fillcolor="#4ba6e7"] ;
782 -> 783 ;
784 [label=<X<SUB>6</SUB> &le; 175.0<br/>gini = 0.122<br/>samples = 46<br/>value = [3, 43]>, fillcolor="#47a4e7"] ;
783 -> 784 ;
785 [label=<X<SUB>4</SUB> &le; 22.5<br/>gini = 0.087<br/>samples = 44<br/>value = [2, 42]>, fillcolor="#42a2e6"] ;
784 -> 785 ;
786 [label=<X<SUB>4</SUB> &le; 20.5<br/>gini = 0.375<br/>samples = 4<br/>value = [1, 3]>, fillcolor="#7bbeee"] ;
785 -> 786 ;
787 [label=<gini = 0.0<br/>samples = 3<br/>value = [0, 3]>, fillcolor="#399de5"] ;
786 -> 787 ;
788 [label=<gini = 0.0<br/>samples = 1<br/>value = [1, 0]>, fillcolor="#e58139"] ;
786 -> 788 ;
789 [label=<X<SUB>331</SUB> &le; 0.5<br/>gini = 0.049<br/>samples = 40<br/>value = [1, 39]>, fillcolor="#3ea0e6"] ;
785 -> 789 ;
790 [label=<gini = 0.0<br/>samples = 35<br/>value = [0, 35]>, fillcolor="#399de5"] ;
789 -> 790 ;
791 [label=<X<SUB>324</SUB> &le; 0.5<br/>gini = 0.32<br/>samples = 5<br/>value = [1, 4]>, fillcolor="#6ab6ec"] ;
789 -> 791 ;
792 [label=<gini = 0.0<br/>samples = 4<br/>value = [0, 4]>, fillcolor="#399de5"] ;
791 -> 792 ;
793 [label=<gini = 0.0<br/>samples = 1<br/>value = [1, 0]>, fillcolor="#e58139"] ;
791 -> 793 ;
794 [label=<X<SUB>115</SUB> &le; 0.5<br/>gini = 0.5<br/>samples = 2<br/>value = [1, 1]>, fillcolor="#ffffff"] ;
784 -> 794 ;
795 [label=<gini = 0.0<br/>samples = 1<br/>value = [1, 0]>, fillcolor="#e58139"] ;
794 -> 795 ;
796 [label=<gini = 0.0<br/>samples = 1<br/>value = [0, 1]>, fillcolor="#399de5"] ;
794 -> 796 ;
797 [label=<gini = 0.0<br/>samples = 1<br/>value = [1, 0]>, fillcolor="#e58139"] ;
783 -> 797 ;
798 [label=<gini = 0.0<br/>samples = 1<br/>value = [1, 0]>, fillcolor="#e58139"] ;
782 -> 798 ;
799 [label=<gini = 0.0<br/>samples = 2<br/>value = [2, 0]>, fillcolor="#e58139"] ;
781 -> 799 ;
800 [label=<X<SUB>287</SUB> &le; 0.5<br/>gini = 0.444<br/>samples = 3<br/>value = [2, 1]>, fillcolor="#f2c09c"] ;
744 -> 800 ;
801 [label=<gini = 0.0<br/>samples = 2<br/>value = [2, 0]>, fillcolor="#e58139"] ;
800 -> 801 ;
802 [label=<gini = 0.0<br/>samples = 1<br/>value = [0, 1]>, fillcolor="#399de5"] ;
800 -> 802 ;
803 [label=<X<SUB>4</SUB> &le; 83.0<br/>gini = 0.311<br/>samples = 135<br/>value = [26, 109]>, fillcolor="#68b4eb"] ;
743 -> 803 ;
804 [label=<X<SUB>4</SUB> &le; 16.5<br/>gini = 0.247<br/>samples = 111<br/>value = [16, 95]>, fillcolor="#5aaee9"] ;
803 -> 804 ;
805 [label=<gini = 0.0<br/>samples = 22<br/>value = [0, 22]>, fillcolor="#399de5"] ;
804 -> 805 ;
806 [label=<X<SUB>4</SUB> &le; 19.5<br/>gini = 0.295<br/>samples = 89<br/>value = [16, 73]>, fillcolor="#64b2eb"] ;
804 -> 806 ;
807 [label=<X<SUB>5</SUB> &le; 1.5<br/>gini = 0.5<br/>samples = 8<br/>value = [4, 4]>, fillcolor="#ffffff"] ;
806 -> 807 ;
808 [label=<X<SUB>332</SUB> &le; 0.5<br/>gini = 0.32<br/>samples = 5<br/>value = [1, 4]>, fillcolor="#6ab6ec"] ;
807 -> 808 ;
809 [label=<gini = 0.0<br/>samples = 4<br/>value = [0, 4]>, fillcolor="#399de5"] ;
808 -> 809 ;
810 [label=<gini = 0.0<br/>samples = 1<br/>value = [1, 0]>, fillcolor="#e58139"] ;
808 -> 810 ;
811 [label=<gini = 0.0<br/>samples = 3<br/>value = [3, 0]>, fillcolor="#e58139"] ;
807 -> 811 ;
812 [label=<X<SUB>162</SUB> &le; 0.5<br/>gini = 0.252<br/>samples = 81<br/>value = [12, 69]>, fillcolor="#5baeea"] ;
806 -> 812 ;
813 [label=<X<SUB>5</SUB> &le; 6.0<br/>gini = 0.237<br/>samples = 80<br/>value = [11, 69]>, fillcolor="#59ade9"] ;
812 -> 813 ;
814 [label=<X<SUB>186</SUB> &le; 0.5<br/>gini = 0.221<br/>samples = 79<br/>value = [10, 69]>, fillcolor="#56abe9"] ;
813 -> 814 ;
815 [label=<gini = 0.0<br/>samples = 21<br/>value = [0, 21]>, fillcolor="#399de5"] ;
814 -> 815 ;
816 [label=<X<SUB>4</SUB> &le; 60.5<br/>gini = 0.285<br/>samples = 58<br/>value = [10, 48]>, fillcolor="#62b1ea"] ;
814 -> 816 ;
817 [label=<X<SUB>327</SUB> &le; 0.5<br/>gini = 0.335<br/>samples = 47<br/>value = [10, 37]>, fillcolor="#6fb7ec"] ;
816 -> 817 ;
818 [label=<X<SUB>185</SUB> &le; 0.5<br/>gini = 0.298<br/>samples = 44<br/>value = [8, 36]>, fillcolor="#65b3eb"] ;
817 -> 818 ;
819 [label=<X<SUB>4</SUB> &le; 56.5<br/>gini = 0.105<br/>samples = 18<br/>value = [1, 17]>, fillcolor="#45a3e7"] ;
818 -> 819 ;
820 [label=<gini = 0.0<br/>samples = 16<br/>value = [0, 16]>, fillcolor="#399de5"] ;
819 -> 820 ;
821 [label=<X<SUB>333</SUB> &le; 0.5<br/>gini = 0.5<br/>samples = 2<br/>value = [1, 1]>, fillcolor="#ffffff"] ;
819 -> 821 ;
822 [label=<gini = 0.0<br/>samples = 1<br/>value = [1, 0]>, fillcolor="#e58139"] ;
821 -> 822 ;
823 [label=<gini = 0.0<br/>samples = 1<br/>value = [0, 1]>, fillcolor="#399de5"] ;
821 -> 823 ;
824 [label=<X<SUB>344</SUB> &le; 0.5<br/>gini = 0.393<br/>samples = 26<br/>value = [7, 19]>, fillcolor="#82c1ef"] ;
818 -> 824 ;
825 [label=<X<SUB>333</SUB> &le; 0.5<br/>gini = 0.365<br/>samples = 25<br/>value = [6, 19]>, fillcolor="#78bced"] ;
824 -> 825 ;
826 [label=<X<SUB>334</SUB> &le; 0.5<br/>gini = 0.33<br/>samples = 24<br/>value = [5, 19]>, fillcolor="#6db7ec"] ;
825 -> 826 ;
827 [label=<X<SUB>328</SUB> &le; 0.5<br/>gini = 0.255<br/>samples = 20<br/>value = [3, 17]>, fillcolor="#5caeea"] ;
826 -> 827 ;
828 [label=<X<SUB>9</SUB> &le; 5.5<br/>gini = 0.198<br/>samples = 18<br/>value = [2, 16]>, fillcolor="#52a9e8"] ;
827 -> 828 ;
829 [label=<X<SUB>4</SUB> &le; 53.0<br/>gini = 0.117<br/>samples = 16<br/>value = [1, 15]>, fillcolor="#46a4e7"] ;
828 -> 829 ;
830 [label=<gini = 0.0<br/>samples = 13<br/>value = [0, 13]>, fillcolor="#399de5"] ;
829 -> 830 ;
831 [label=<X<SUB>321</SUB> &le; 0.5<br/>gini = 0.444<br/>samples = 3<br/>value = [1, 2]>, fillcolor="#9ccef2"] ;
829 -> 831 ;
832 [label=<gini = 0.0<br/>samples = 2<br/>value = [0, 2]>, fillcolor="#399de5"] ;
831 -> 832 ;
833 [label=<gini = 0.0<br/>samples = 1<br/>value = [1, 0]>, fillcolor="#e58139"] ;
831 -> 833 ;
834 [label=<X<SUB>359</SUB> &le; 0.5<br/>gini = 0.5<br/>samples = 2<br/>value = [1, 1]>, fillcolor="#ffffff"] ;
828 -> 834 ;
835 [label=<gini = 0.0<br/>samples = 1<br/>value = [1, 0]>, fillcolor="#e58139"] ;
834 -> 835 ;
836 [label=<gini = 0.0<br/>samples = 1<br/>value = [0, 1]>, fillcolor="#399de5"] ;
834 -> 836 ;
837 [label=<X<SUB>4</SUB> &le; 33.0<br/>gini = 0.5<br/>samples = 2<br/>value = [1, 1]>, fillcolor="#ffffff"] ;
827 -> 837 ;
838 [label=<gini = 0.0<br/>samples = 1<br/>value = [0, 1]>, fillcolor="#399de5"] ;
837 -> 838 ;
839 [label=<gini = 0.0<br/>samples = 1<br/>value = [1, 0]>, fillcolor="#e58139"] ;
837 -> 839 ;
840 [label=<X<SUB>5</SUB> &le; 1.5<br/>gini = 0.5<br/>samples = 4<br/>value = [2, 2]>, fillcolor="#ffffff"] ;
826 -> 840 ;
841 [label=<gini = 0.0<br/>samples = 2<br/>value = [2, 0]>, fillcolor="#e58139"] ;
840 -> 841 ;
842 [label=<gini = 0.0<br/>samples = 2<br/>value = [0, 2]>, fillcolor="#399de5"] ;
840 -> 842 ;
843 [label=<gini = 0.0<br/>samples = 1<br/>value = [1, 0]>, fillcolor="#e58139"] ;
825 -> 843 ;
844 [label=<gini = 0.0<br/>samples = 1<br/>value = [1, 0]>, fillcolor="#e58139"] ;
824 -> 844 ;
845 [label=<X<SUB>4</SUB> &le; 52.0<br/>gini = 0.444<br/>samples = 3<br/>value = [2, 1]>, fillcolor="#f2c09c"] ;
817 -> 845 ;
846 [label=<gini = 0.0<br/>samples = 2<br/>value = [2, 0]>, fillcolor="#e58139"] ;
845 -> 846 ;
847 [label=<gini = 0.0<br/>samples = 1<br/>value = [0, 1]>, fillcolor="#399de5"] ;
845 -> 847 ;
848 [label=<gini = 0.0<br/>samples = 11<br/>value = [0, 11]>, fillcolor="#399de5"] ;
816 -> 848 ;
849 [label=<gini = 0.0<br/>samples = 1<br/>value = [1, 0]>, fillcolor="#e58139"] ;
813 -> 849 ;
850 [label=<gini = 0.0<br/>samples = 1<br/>value = [1, 0]>, fillcolor="#e58139"] ;
812 -> 850 ;
851 [label=<X<SUB>348</SUB> &le; 0.5<br/>gini = 0.486<br/>samples = 24<br/>value = [10, 14]>, fillcolor="#c6e3f8"] ;
803 -> 851 ;
852 [label=<X<SUB>4</SUB> &le; 89.5<br/>gini = 0.298<br/>samples = 11<br/>value = [2, 9]>, fillcolor="#65b3eb"] ;
851 -> 852 ;
853 [label=<gini = 0.0<br/>samples = 1<br/>value = [1, 0]>, fillcolor="#e58139"] ;
852 -> 853 ;
854 [label=<X<SUB>147</SUB> &le; 0.5<br/>gini = 0.18<br/>samples = 10<br/>value = [1, 9]>, fillcolor="#4fa8e8"] ;
852 -> 854 ;
855 [label=<gini = 0.0<br/>samples = 8<br/>value = [0, 8]>, fillcolor="#399de5"] ;
854 -> 855 ;
856 [label=<X<SUB>359</SUB> &le; 0.5<br/>gini = 0.5<br/>samples = 2<br/>value = [1, 1]>, fillcolor="#ffffff"] ;
854 -> 856 ;
857 [label=<gini = 0.0<br/>samples = 1<br/>value = [1, 0]>, fillcolor="#e58139"] ;
856 -> 857 ;
858 [label=<gini = 0.0<br/>samples = 1<br/>value = [0, 1]>, fillcolor="#399de5"] ;
856 -> 858 ;
859 [label=<X<SUB>320</SUB> &le; 0.5<br/>gini = 0.473<br/>samples = 13<br/>value = [8, 5]>, fillcolor="#f5d0b5"] ;
851 -> 859 ;
860 [label=<X<SUB>370</SUB> &le; 0.5<br/>gini = 0.32<br/>samples = 10<br/>value = [8, 2]>, fillcolor="#eca06a"] ;
859 -> 860 ;
861 [label=<X<SUB>353</SUB> &le; 0.5<br/>gini = 0.198<br/>samples = 9<br/>value = [8, 1]>, fillcolor="#e89152"] ;
860 -> 861 ;
862 [label=<gini = 0.0<br/>samples = 7<br/>value = [7, 0]>, fillcolor="#e58139"] ;
861 -> 862 ;
863 [label=<X<SUB>345</SUB> &le; 0.5<br/>gini = 0.5<br/>samples = 2<br/>value = [1, 1]>, fillcolor="#ffffff"] ;
861 -> 863 ;
864 [label=<gini = 0.0<br/>samples = 1<br/>value = [1, 0]>, fillcolor="#e58139"] ;
863 -> 864 ;
865 [label=<gini = 0.0<br/>samples = 1<br/>value = [0, 1]>, fillcolor="#399de5"] ;
863 -> 865 ;
866 [label=<gini = 0.0<br/>samples = 1<br/>value = [0, 1]>, fillcolor="#399de5"] ;
860 -> 866 ;
867 [label=<gini = 0.0<br/>samples = 3<br/>value = [0, 3]>, fillcolor="#399de5"] ;
859 -> 867 ;
868 [label=<gini = 0.0<br/>samples = 1<br/>value = [1, 0]>, fillcolor="#e58139"] ;
742 -> 868 ;
869 [label=<X<SUB>5</SUB> &le; 4.5<br/>gini = 0.453<br/>samples = 26<br/>value = [9, 17]>, fillcolor="#a2d1f3"] ;
741 -> 869 ;
870 [label=<X<SUB>322</SUB> &le; 0.5<br/>gini = 0.363<br/>samples = 21<br/>value = [5, 16]>, fillcolor="#77bced"] ;
869 -> 870 ;
871 [label=<gini = 0.0<br/>samples = 13<br/>value = [0, 13]>, fillcolor="#399de5"] ;
870 -> 871 ;
872 [label=<X<SUB>324</SUB> &le; 0.5<br/>gini = 0.469<br/>samples = 8<br/>value = [5, 3]>, fillcolor="#f5cdb0"] ;
870 -> 872 ;
873 [label=<gini = 0.0<br/>samples = 4<br/>value = [4, 0]>, fillcolor="#e58139"] ;
872 -> 873 ;
874 [label=<X<SUB>352</SUB> &le; 0.5<br/>gini = 0.375<br/>samples = 4<br/>value = [1, 3]>, fillcolor="#7bbeee"] ;
872 -> 874 ;
875 [label=<gini = 0.0<br/>samples = 3<br/>value = [0, 3]>, fillcolor="#399de5"] ;
874 -> 875 ;
876 [label=<gini = 0.0<br/>samples = 1<br/>value = [1, 0]>, fillcolor="#e58139"] ;
874 -> 876 ;
877 [label=<X<SUB>344</SUB> &le; 0.5<br/>gini = 0.32<br/>samples = 5<br/>value = [4, 1]>, fillcolor="#eca06a"] ;
869 -> 877 ;
878 [label=<gini = 0.0<br/>samples = 4<br/>value = [4, 0]>, fillcolor="#e58139"] ;
877 -> 878 ;
879 [label=<gini = 0.0<br/>samples = 1<br/>value = [0, 1]>, fillcolor="#399de5"] ;
877 -> 879 ;
880 [label=<X<SUB>331</SUB> &le; 0.5<br/>gini = 0.48<br/>samples = 15<br/>value = [6, 9]>, fillcolor="#bddef6"] ;
740 -> 880 ;
881 [label=<X<SUB>334</SUB> &le; 0.5<br/>gini = 0.298<br/>samples = 11<br/>value = [2, 9]>, fillcolor="#65b3eb"] ;
880 -> 881 ;
882 [label=<gini = 0.0<br/>samples = 8<br/>value = [0, 8]>, fillcolor="#399de5"] ;
881 -> 882 ;
883 [label=<X<SUB>352</SUB> &le; 0.5<br/>gini = 0.444<br/>samples = 3<br/>value = [2, 1]>, fillcolor="#f2c09c"] ;
881 -> 883 ;
884 [label=<gini = 0.0<br/>samples = 2<br/>value = [2, 0]>, fillcolor="#e58139"] ;
883 -> 884 ;
885 [label=<gini = 0.0<br/>samples = 1<br/>value = [0, 1]>, fillcolor="#399de5"] ;
883 -> 885 ;
886 [label=<gini = 0.0<br/>samples = 4<br/>value = [4, 0]>, fillcolor="#e58139"] ;
880 -> 886 ;
887 [label=<gini = 0.0<br/>samples = 2<br/>value = [2, 0]>, fillcolor="#e58139"] ;
739 -> 887 ;
888 [label=<X<SUB>359</SUB> &le; 0.5<br/>gini = 0.49<br/>samples = 28<br/>value = [16, 12]>, fillcolor="#f8e0ce"] ;
708 -> 888 ;
889 [label=<X<SUB>321</SUB> &le; 0.5<br/>gini = 0.32<br/>samples = 20<br/>value = [16, 4]>, fillcolor="#eca06a"] ;
888 -> 889 ;
890 [label=<X<SUB>232</SUB> &le; 0.5<br/>gini = 0.117<br/>samples = 16<br/>value = [15, 1]>, fillcolor="#e78946"] ;
889 -> 890 ;
891 [label=<gini = 0.0<br/>samples = 15<br/>value = [15, 0]>, fillcolor="#e58139"] ;
890 -> 891 ;
892 [label=<gini = 0.0<br/>samples = 1<br/>value = [0, 1]>, fillcolor="#399de5"] ;
890 -> 892 ;
